digraph Tree {
node [shape=box, style="filled, rounded", color="black", fontname=helvetica] ;
edge [fontname=helvetica] ;
0 [label="X[0] <= 43.197\ngini = 0.667\nsamples = 584\nvalue = [191, 195, 198]\nclass = y[2]", fillcolor="#fefdff"] ;
1 [label="X[0] <= 36.532\ngini = 0.464\nsamples = 226\nvalue = [52, 156, 18]\nclass = y[1]", fillcolor="#89efb4"] ;
0 -> 1 [labeldistance=2.5, labelangle=45, headlabel="True"] ;
2 [label="X[2] <= 14.5\ngini = 0.347\nsamples = 137\nvalue = [24, 108, 5]\nclass = y[1]", fillcolor="#6ceca1"] ;
1 -> 2 ;
3 [label="X[25] <= 0.5\ngini = 0.32\nsamples = 131\nvalue = [20, 106, 5]\nclass = y[1]", fillcolor="#66eb9d"] ;
2 -> 3 ;
4 [label="X[18] <= 0.75\ngini = 0.482\nsamples = 43\nvalue = [10, 29, 4]\nclass = y[1]", fillcolor="#8df0b6"] ;
3 -> 4 ;
5 [label="gini = 0.0\nsamples = 2\nvalue = [2, 0, 0]\nclass = y[0]", fillcolor="#e58139"] ;
4 -> 5 ;
6 [label="X[28] <= 3.5\ngini = 0.452\nsamples = 41\nvalue = [8, 29, 4]\nclass = y[1]", fillcolor="#81eeaf"] ;
4 -> 6 ;
7 [label="X[12] <= 0.5\ngini = 0.429\nsamples = 40\nvalue = [8, 29, 3]\nclass = y[1]", fillcolor="#7deeac"] ;
6 -> 7 ;
8 [label="X[30] <= 0.5\ngini = 0.254\nsamples = 21\nvalue = [2, 18, 1]\nclass = y[1]", fillcolor="#58e995"] ;
7 -> 8 ;
9 [label="X[29] <= 0.5\ngini = 0.5\nsamples = 2\nvalue = [1, 0, 1]\nclass = y[0]", fillcolor="#ffffff"] ;
8 -> 9 ;
10 [label="gini = 0.0\nsamples = 1\nvalue = [1, 0, 0]\nclass = y[0]", fillcolor="#e58139"] ;
9 -> 10 ;
11 [label="gini = 0.0\nsamples = 1\nvalue = [0, 0, 1]\nclass = y[2]", fillcolor="#8139e5"] ;
9 -> 11 ;
12 [label="X[8] <= -0.5\ngini = 0.1\nsamples = 19\nvalue = [1, 18, 0]\nclass = y[1]", fillcolor="#44e688"] ;
8 -> 12 ;
13 [label="gini = 0.0\nsamples = 16\nvalue = [0, 16, 0]\nclass = y[1]", fillcolor="#39e581"] ;
12 -> 13 ;
14 [label="X[5] <= 0.5\ngini = 0.444\nsamples = 3\nvalue = [1, 2, 0]\nclass = y[1]", fillcolor="#9cf2c0"] ;
12 -> 14 ;
15 [label="gini = 0.0\nsamples = 1\nvalue = [1, 0, 0]\nclass = y[0]", fillcolor="#e58139"] ;
14 -> 15 ;
16 [label="gini = 0.0\nsamples = 2\nvalue = [0, 2, 0]\nclass = y[1]", fillcolor="#39e581"] ;
14 -> 16 ;
17 [label="X[17] <= 1.5\ngini = 0.554\nsamples = 19\nvalue = [6, 11, 2]\nclass = y[1]", fillcolor="#b3f5cf"] ;
7 -> 17 ;
18 [label="X[0] <= 34.081\ngini = 0.531\nsamples = 8\nvalue = [5, 2, 1]\nclass = y[0]", fillcolor="#f2c09c"] ;
17 -> 18 ;
19 [label="X[5] <= 1.5\ngini = 0.278\nsamples = 6\nvalue = [5, 1, 0]\nclass = y[0]", fillcolor="#ea9a61"] ;
18 -> 19 ;
20 [label="gini = 0.0\nsamples = 5\nvalue = [5, 0, 0]\nclass = y[0]", fillcolor="#e58139"] ;
19 -> 20 ;
21 [label="gini = 0.0\nsamples = 1\nvalue = [0, 1, 0]\nclass = y[1]", fillcolor="#39e581"] ;
19 -> 21 ;
22 [label="X[9] <= 1.5\ngini = 0.5\nsamples = 2\nvalue = [0, 1, 1]\nclass = y[1]", fillcolor="#ffffff"] ;
18 -> 22 ;
23 [label="gini = 0.0\nsamples = 1\nvalue = [0, 0, 1]\nclass = y[2]", fillcolor="#8139e5"] ;
22 -> 23 ;
24 [label="gini = 0.0\nsamples = 1\nvalue = [0, 1, 0]\nclass = y[1]", fillcolor="#39e581"] ;
22 -> 24 ;
25 [label="X[11] <= 0.5\ngini = 0.314\nsamples = 11\nvalue = [1, 9, 1]\nclass = y[1]", fillcolor="#61ea9a"] ;
17 -> 25 ;
26 [label="gini = 0.0\nsamples = 1\nvalue = [1, 0, 0]\nclass = y[0]", fillcolor="#e58139"] ;
25 -> 26 ;
27 [label="X[20] <= 8.0\ngini = 0.18\nsamples = 10\nvalue = [0, 9, 1]\nclass = y[1]", fillcolor="#4fe88f"] ;
25 -> 27 ;
28 [label="gini = 0.0\nsamples = 8\nvalue = [0, 8, 0]\nclass = y[1]", fillcolor="#39e581"] ;
27 -> 28 ;
29 [label="X[11] <= 2.5\ngini = 0.5\nsamples = 2\nvalue = [0, 1, 1]\nclass = y[1]", fillcolor="#ffffff"] ;
27 -> 29 ;
30 [label="gini = 0.0\nsamples = 1\nvalue = [0, 0, 1]\nclass = y[2]", fillcolor="#8139e5"] ;
29 -> 30 ;
31 [label="gini = 0.0\nsamples = 1\nvalue = [0, 1, 0]\nclass = y[1]", fillcolor="#39e581"] ;
29 -> 31 ;
32 [label="gini = 0.0\nsamples = 1\nvalue = [0, 0, 1]\nclass = y[2]", fillcolor="#8139e5"] ;
6 -> 32 ;
33 [label="X[3] <= 3.0\ngini = 0.221\nsamples = 88\nvalue = [10, 77, 1]\nclass = y[1]", fillcolor="#55e993"] ;
3 -> 33 ;
34 [label="X[23] <= 0.5\ngini = 0.206\nsamples = 87\nvalue = [9, 77, 1]\nclass = y[1]", fillcolor="#52e891"] ;
33 -> 34 ;
35 [label="X[13] <= 6.0\ngini = 0.096\nsamples = 60\nvalue = [2, 57, 1]\nclass = y[1]", fillcolor="#43e688"] ;
34 -> 35 ;
36 [label="X[20] <= 14.5\ngini = 0.067\nsamples = 58\nvalue = [2, 56, 0]\nclass = y[1]", fillcolor="#40e686"] ;
35 -> 36 ;
37 [label="X[29] <= 0.5\ngini = 0.036\nsamples = 54\nvalue = [1, 53, 0]\nclass = y[1]", fillcolor="#3de583"] ;
36 -> 37 ;
38 [label="X[10] <= 0.5\ngini = 0.18\nsamples = 10\nvalue = [1, 9, 0]\nclass = y[1]", fillcolor="#4fe88f"] ;
37 -> 38 ;
39 [label="gini = 0.0\nsamples = 1\nvalue = [1, 0, 0]\nclass = y[0]", fillcolor="#e58139"] ;
38 -> 39 ;
40 [label="gini = 0.0\nsamples = 9\nvalue = [0, 9, 0]\nclass = y[1]", fillcolor="#39e581"] ;
38 -> 40 ;
41 [label="gini = 0.0\nsamples = 44\nvalue = [0, 44, 0]\nclass = y[1]", fillcolor="#39e581"] ;
37 -> 41 ;
42 [label="X[14] <= 3.5\ngini = 0.375\nsamples = 4\nvalue = [1, 3, 0]\nclass = y[1]", fillcolor="#7beeab"] ;
36 -> 42 ;
43 [label="gini = 0.0\nsamples = 3\nvalue = [0, 3, 0]\nclass = y[1]", fillcolor="#39e581"] ;
42 -> 43 ;
44 [label="gini = 0.0\nsamples = 1\nvalue = [1, 0, 0]\nclass = y[0]", fillcolor="#e58139"] ;
42 -> 44 ;
45 [label="X[15] <= 4.5\ngini = 0.5\nsamples = 2\nvalue = [0, 1, 1]\nclass = y[1]", fillcolor="#ffffff"] ;
35 -> 45 ;
46 [label="gini = 0.0\nsamples = 1\nvalue = [0, 0, 1]\nclass = y[2]", fillcolor="#8139e5"] ;
45 -> 46 ;
47 [label="gini = 0.0\nsamples = 1\nvalue = [0, 1, 0]\nclass = y[1]", fillcolor="#39e581"] ;
45 -> 47 ;
48 [label="X[2] <= 4.5\ngini = 0.384\nsamples = 27\nvalue = [7, 20, 0]\nclass = y[1]", fillcolor="#7eeead"] ;
34 -> 48 ;
49 [label="X[14] <= 0.5\ngini = 0.219\nsamples = 16\nvalue = [2, 14, 0]\nclass = y[1]", fillcolor="#55e993"] ;
48 -> 49 ;
50 [label="X[23] <= 2.5\ngini = 0.48\nsamples = 5\nvalue = [2, 3, 0]\nclass = y[1]", fillcolor="#bdf6d5"] ;
49 -> 50 ;
51 [label="X[9] <= 0.5\ngini = 0.444\nsamples = 3\nvalue = [2, 1, 0]\nclass = y[0]", fillcolor="#f2c09c"] ;
50 -> 51 ;
52 [label="gini = 0.0\nsamples = 1\nvalue = [0, 1, 0]\nclass = y[1]", fillcolor="#39e581"] ;
51 -> 52 ;
53 [label="gini = 0.0\nsamples = 2\nvalue = [2, 0, 0]\nclass = y[0]", fillcolor="#e58139"] ;
51 -> 53 ;
54 [label="gini = 0.0\nsamples = 2\nvalue = [0, 2, 0]\nclass = y[1]", fillcolor="#39e581"] ;
50 -> 54 ;
55 [label="gini = 0.0\nsamples = 11\nvalue = [0, 11, 0]\nclass = y[1]", fillcolor="#39e581"] ;
49 -> 55 ;
56 [label="X[11] <= 1.5\ngini = 0.496\nsamples = 11\nvalue = [5, 6, 0]\nclass = y[1]", fillcolor="#defbea"] ;
48 -> 56 ;
57 [label="X[9] <= 2.5\ngini = 0.408\nsamples = 7\nvalue = [5, 2, 0]\nclass = y[0]", fillcolor="#efb388"] ;
56 -> 57 ;
58 [label="gini = 0.0\nsamples = 5\nvalue = [5, 0, 0]\nclass = y[0]", fillcolor="#e58139"] ;
57 -> 58 ;
59 [label="gini = 0.0\nsamples = 2\nvalue = [0, 2, 0]\nclass = y[1]", fillcolor="#39e581"] ;
57 -> 59 ;
60 [label="gini = 0.0\nsamples = 4\nvalue = [0, 4, 0]\nclass = y[1]", fillcolor="#39e581"] ;
56 -> 60 ;
61 [label="gini = 0.0\nsamples = 1\nvalue = [1, 0, 0]\nclass = y[0]", fillcolor="#e58139"] ;
33 -> 61 ;
62 [label="X[18] <= 30.5\ngini = 0.444\nsamples = 6\nvalue = [4, 2, 0]\nclass = y[0]", fillcolor="#f2c09c"] ;
2 -> 62 ;
63 [label="gini = 0.0\nsamples = 4\nvalue = [4, 0, 0]\nclass = y[0]", fillcolor="#e58139"] ;
62 -> 63 ;
64 [label="gini = 0.0\nsamples = 2\nvalue = [0, 2, 0]\nclass = y[1]", fillcolor="#39e581"] ;
62 -> 64 ;
65 [label="X[0] <= 40.482\ngini = 0.589\nsamples = 89\nvalue = [28, 48, 13]\nclass = y[1]", fillcolor="#bef6d6"] ;
1 -> 65 ;
66 [label="X[6] <= 0.5\ngini = 0.577\nsamples = 44\nvalue = [21, 19, 4]\nclass = y[0]", fillcolor="#fdf5ef"] ;
65 -> 66 ;
67 [label="gini = 0.0\nsamples = 9\nvalue = [9, 0, 0]\nclass = y[0]", fillcolor="#e58139"] ;
66 -> 67 ;
68 [label="X[2] <= 18.5\ngini = 0.575\nsamples = 35\nvalue = [12, 19, 4]\nclass = y[1]", fillcolor="#c3f7d9"] ;
66 -> 68 ;
69 [label="X[2] <= 13.5\ngini = 0.553\nsamples = 32\nvalue = [9, 19, 4]\nclass = y[1]", fillcolor="#a9f4c8"] ;
68 -> 69 ;
70 [label="X[11] <= 2.5\ngini = 0.635\nsamples = 21\nvalue = [9, 8, 4]\nclass = y[0]", fillcolor="#fdf5f0"] ;
69 -> 70 ;
71 [label="X[20] <= 3.5\ngini = 0.625\nsamples = 16\nvalue = [4, 8, 4]\nclass = y[1]", fillcolor="#bdf6d5"] ;
70 -> 71 ;
72 [label="X[18] <= 22.0\ngini = 0.612\nsamples = 7\nvalue = [3, 1, 3]\nclass = y[0]", fillcolor="#ffffff"] ;
71 -> 72 ;
73 [label="gini = 0.0\nsamples = 3\nvalue = [3, 0, 0]\nclass = y[0]", fillcolor="#e58139"] ;
72 -> 73 ;
74 [label="X[10] <= 0.5\ngini = 0.375\nsamples = 4\nvalue = [0, 1, 3]\nclass = y[2]", fillcolor="#ab7bee"] ;
72 -> 74 ;
75 [label="gini = 0.0\nsamples = 1\nvalue = [0, 1, 0]\nclass = y[1]", fillcolor="#39e581"] ;
74 -> 75 ;
76 [label="gini = 0.0\nsamples = 3\nvalue = [0, 0, 3]\nclass = y[2]", fillcolor="#8139e5"] ;
74 -> 76 ;
77 [label="X[0] <= 39.949\ngini = 0.37\nsamples = 9\nvalue = [1, 7, 1]\nclass = y[1]", fillcolor="#6aeca0"] ;
71 -> 77 ;
78 [label="X[11] <= 0.5\ngini = 0.219\nsamples = 8\nvalue = [0, 7, 1]\nclass = y[1]", fillcolor="#55e993"] ;
77 -> 78 ;
79 [label="gini = 0.0\nsamples = 1\nvalue = [0, 0, 1]\nclass = y[2]", fillcolor="#8139e5"] ;
78 -> 79 ;
80 [label="gini = 0.0\nsamples = 7\nvalue = [0, 7, 0]\nclass = y[1]", fillcolor="#39e581"] ;
78 -> 80 ;
81 [label="gini = 0.0\nsamples = 1\nvalue = [1, 0, 0]\nclass = y[0]", fillcolor="#e58139"] ;
77 -> 81 ;
82 [label="gini = 0.0\nsamples = 5\nvalue = [5, 0, 0]\nclass = y[0]", fillcolor="#e58139"] ;
70 -> 82 ;
83 [label="gini = 0.0\nsamples = 11\nvalue = [0, 11, 0]\nclass = y[1]", fillcolor="#39e581"] ;
69 -> 83 ;
84 [label="gini = 0.0\nsamples = 3\nvalue = [3, 0, 0]\nclass = y[0]", fillcolor="#e58139"] ;
68 -> 84 ;
85 [label="X[3] <= 1.0\ngini = 0.52\nsamples = 45\nvalue = [7, 29, 9]\nclass = y[1]", fillcolor="#91f1b9"] ;
65 -> 85 ;
86 [label="X[10] <= 0.5\ngini = 0.464\nsamples = 40\nvalue = [7, 28, 5]\nclass = y[1]", fillcolor="#81eeaf"] ;
85 -> 86 ;
87 [label="X[11] <= 2.5\ngini = 0.642\nsamples = 9\nvalue = [4, 3, 2]\nclass = y[0]", fillcolor="#fbeade"] ;
86 -> 87 ;
88 [label="X[11] <= 1.5\ngini = 0.49\nsamples = 7\nvalue = [4, 3, 0]\nclass = y[0]", fillcolor="#f8e0ce"] ;
87 -> 88 ;
89 [label="X[18] <= 5.0\ngini = 0.375\nsamples = 4\nvalue = [1, 3, 0]\nclass = y[1]", fillcolor="#7beeab"] ;
88 -> 89 ;
90 [label="gini = 0.0\nsamples = 1\nvalue = [1, 0, 0]\nclass = y[0]", fillcolor="#e58139"] ;
89 -> 90 ;
91 [label="gini = 0.0\nsamples = 3\nvalue = [0, 3, 0]\nclass = y[1]", fillcolor="#39e581"] ;
89 -> 91 ;
92 [label="gini = 0.0\nsamples = 3\nvalue = [3, 0, 0]\nclass = y[0]", fillcolor="#e58139"] ;
88 -> 92 ;
93 [label="gini = 0.0\nsamples = 2\nvalue = [0, 0, 2]\nclass = y[2]", fillcolor="#8139e5"] ;
87 -> 93 ;
94 [label="X[20] <= 17.5\ngini = 0.331\nsamples = 31\nvalue = [3, 25, 3]\nclass = y[1]", fillcolor="#63eb9c"] ;
86 -> 94 ;
95 [label="X[8] <= 1.5\ngini = 0.291\nsamples = 30\nvalue = [3, 25, 2]\nclass = y[1]", fillcolor="#5eea98"] ;
94 -> 95 ;
96 [label="X[20] <= 2.5\ngini = 0.247\nsamples = 29\nvalue = [2, 25, 2]\nclass = y[1]", fillcolor="#56e994"] ;
95 -> 96 ;
97 [label="X[24] <= 0.5\ngini = 0.48\nsamples = 5\nvalue = [0, 3, 2]\nclass = y[1]", fillcolor="#bdf6d5"] ;
96 -> 97 ;
98 [label="gini = 0.0\nsamples = 3\nvalue = [0, 3, 0]\nclass = y[1]", fillcolor="#39e581"] ;
97 -> 98 ;
99 [label="gini = 0.0\nsamples = 2\nvalue = [0, 0, 2]\nclass = y[2]", fillcolor="#8139e5"] ;
97 -> 99 ;
100 [label="X[13] <= 0.5\ngini = 0.153\nsamples = 24\nvalue = [2, 22, 0]\nclass = y[1]", fillcolor="#4be78c"] ;
96 -> 100 ;
101 [label="gini = 0.0\nsamples = 18\nvalue = [0, 18, 0]\nclass = y[1]", fillcolor="#39e581"] ;
100 -> 101 ;
102 [label="X[27] <= 1.5\ngini = 0.444\nsamples = 6\nvalue = [2, 4, 0]\nclass = y[1]", fillcolor="#9cf2c0"] ;
100 -> 102 ;
103 [label="gini = 0.0\nsamples = 4\nvalue = [0, 4, 0]\nclass = y[1]", fillcolor="#39e581"] ;
102 -> 103 ;
104 [label="gini = 0.0\nsamples = 2\nvalue = [2, 0, 0]\nclass = y[0]", fillcolor="#e58139"] ;
102 -> 104 ;
105 [label="gini = 0.0\nsamples = 1\nvalue = [1, 0, 0]\nclass = y[0]", fillcolor="#e58139"] ;
95 -> 105 ;
106 [label="gini = 0.0\nsamples = 1\nvalue = [0, 0, 1]\nclass = y[2]", fillcolor="#8139e5"] ;
94 -> 106 ;
107 [label="X[14] <= 2.5\ngini = 0.32\nsamples = 5\nvalue = [0, 1, 4]\nclass = y[2]", fillcolor="#a06aec"] ;
85 -> 107 ;
108 [label="gini = 0.0\nsamples = 4\nvalue = [0, 0, 4]\nclass = y[2]", fillcolor="#8139e5"] ;
107 -> 108 ;
109 [label="gini = 0.0\nsamples = 1\nvalue = [0, 1, 0]\nclass = y[1]", fillcolor="#39e581"] ;
107 -> 109 ;
110 [label="X[0] <= 65.604\ngini = 0.585\nsamples = 358\nvalue = [139, 39, 180]\nclass = y[2]", fillcolor="#e7dafa"] ;
0 -> 110 [labeldistance=2.5, labelangle=-45, headlabel="False"] ;
111 [label="X[14] <= 1.5\ngini = 0.613\nsamples = 252\nvalue = [114, 37, 101]\nclass = y[0]", fillcolor="#fdf4ee"] ;
110 -> 111 ;
112 [label="X[27] <= 0.5\ngini = 0.608\nsamples = 165\nvalue = [62, 24, 79]\nclass = y[2]", fillcolor="#eadefb"] ;
111 -> 112 ;
113 [label="X[25] <= 1.5\ngini = 0.444\nsamples = 12\nvalue = [8, 4, 0]\nclass = y[0]", fillcolor="#f2c09c"] ;
112 -> 113 ;
114 [label="gini = 0.0\nsamples = 8\nvalue = [8, 0, 0]\nclass = y[0]", fillcolor="#e58139"] ;
113 -> 114 ;
115 [label="gini = 0.0\nsamples = 4\nvalue = [0, 4, 0]\nclass = y[1]", fillcolor="#39e581"] ;
113 -> 115 ;
116 [label="X[16] <= 1.5\ngini = 0.592\nsamples = 153\nvalue = [54, 20, 79]\nclass = y[2]", fillcolor="#dfcdf8"] ;
112 -> 116 ;
117 [label="X[11] <= 1.5\ngini = 0.613\nsamples = 67\nvalue = [31, 10, 26]\nclass = y[0]", fillcolor="#fcf0e7"] ;
116 -> 117 ;
118 [label="X[18] <= 2.25\ngini = 0.552\nsamples = 23\nvalue = [5, 4, 14]\nclass = y[2]", fillcolor="#c09cf2"] ;
117 -> 118 ;
119 [label="gini = 0.0\nsamples = 2\nvalue = [0, 2, 0]\nclass = y[1]", fillcolor="#39e581"] ;
118 -> 119 ;
120 [label="X[10] <= 3.5\ngini = 0.49\nsamples = 21\nvalue = [5, 2, 14]\nclass = y[2]", fillcolor="#b890f0"] ;
118 -> 120 ;
121 [label="X[28] <= 3.5\ngini = 0.421\nsamples = 19\nvalue = [3, 2, 14]\nclass = y[2]", fillcolor="#a877ed"] ;
120 -> 121 ;
122 [label="X[22] <= 0.5\ngini = 0.304\nsamples = 17\nvalue = [1, 2, 14]\nclass = y[2]", fillcolor="#9a61ea"] ;
121 -> 122 ;
123 [label="X[0] <= 50.99\ngini = 0.219\nsamples = 16\nvalue = [0, 2, 14]\nclass = y[2]", fillcolor="#9355e9"] ;
122 -> 123 ;
124 [label="X[28] <= 2.5\ngini = 0.48\nsamples = 5\nvalue = [0, 2, 3]\nclass = y[2]", fillcolor="#d5bdf6"] ;
123 -> 124 ;
125 [label="gini = 0.0\nsamples = 2\nvalue = [0, 2, 0]\nclass = y[1]", fillcolor="#39e581"] ;
124 -> 125 ;
126 [label="gini = 0.0\nsamples = 3\nvalue = [0, 0, 3]\nclass = y[2]", fillcolor="#8139e5"] ;
124 -> 126 ;
127 [label="gini = 0.0\nsamples = 11\nvalue = [0, 0, 11]\nclass = y[2]", fillcolor="#8139e5"] ;
123 -> 127 ;
128 [label="gini = 0.0\nsamples = 1\nvalue = [1, 0, 0]\nclass = y[0]", fillcolor="#e58139"] ;
122 -> 128 ;
129 [label="gini = 0.0\nsamples = 2\nvalue = [2, 0, 0]\nclass = y[0]", fillcolor="#e58139"] ;
121 -> 129 ;
130 [label="gini = 0.0\nsamples = 2\nvalue = [2, 0, 0]\nclass = y[0]", fillcolor="#e58139"] ;
120 -> 130 ;
131 [label="X[28] <= 1.5\ngini = 0.558\nsamples = 44\nvalue = [26, 6, 12]\nclass = y[0]", fillcolor="#f4c8a8"] ;
117 -> 131 ;
132 [label="X[9] <= 2.5\ngini = 0.231\nsamples = 15\nvalue = [13, 0, 2]\nclass = y[0]", fillcolor="#e99457"] ;
131 -> 132 ;
133 [label="gini = 0.0\nsamples = 12\nvalue = [12, 0, 0]\nclass = y[0]", fillcolor="#e58139"] ;
132 -> 133 ;
134 [label="X[15] <= 6.0\ngini = 0.444\nsamples = 3\nvalue = [1, 0, 2]\nclass = y[2]", fillcolor="#c09cf2"] ;
132 -> 134 ;
135 [label="gini = 0.0\nsamples = 2\nvalue = [0, 0, 2]\nclass = y[2]", fillcolor="#8139e5"] ;
134 -> 135 ;
136 [label="gini = 0.0\nsamples = 1\nvalue = [1, 0, 0]\nclass = y[0]", fillcolor="#e58139"] ;
134 -> 136 ;
137 [label="X[25] <= 0.5\ngini = 0.637\nsamples = 29\nvalue = [13, 6, 10]\nclass = y[0]", fillcolor="#fbebe0"] ;
131 -> 137 ;
138 [label="X[0] <= 61.737\ngini = 0.623\nsamples = 17\nvalue = [8, 6, 3]\nclass = y[0]", fillcolor="#fae8db"] ;
137 -> 138 ;
139 [label="X[9] <= 2.5\ngini = 0.643\nsamples = 14\nvalue = [5, 6, 3]\nclass = y[1]", fillcolor="#e9fcf1"] ;
138 -> 139 ;
140 [label="X[28] <= 4.5\ngini = 0.569\nsamples = 12\nvalue = [5, 6, 1]\nclass = y[1]", fillcolor="#e3fbed"] ;
139 -> 140 ;
141 [label="X[20] <= 12.0\ngini = 0.54\nsamples = 10\nvalue = [3, 6, 1]\nclass = y[1]", fillcolor="#aaf4c9"] ;
140 -> 141 ;
142 [label="X[9] <= 1.5\ngini = 0.375\nsamples = 8\nvalue = [2, 6, 0]\nclass = y[1]", fillcolor="#7beeab"] ;
141 -> 142 ;
143 [label="gini = 0.0\nsamples = 5\nvalue = [0, 5, 0]\nclass = y[1]", fillcolor="#39e581"] ;
142 -> 143 ;
144 [label="X[12] <= 0.5\ngini = 0.444\nsamples = 3\nvalue = [2, 1, 0]\nclass = y[0]", fillcolor="#f2c09c"] ;
142 -> 144 ;
145 [label="gini = 0.0\nsamples = 1\nvalue = [0, 1, 0]\nclass = y[1]", fillcolor="#39e581"] ;
144 -> 145 ;
146 [label="gini = 0.0\nsamples = 2\nvalue = [2, 0, 0]\nclass = y[0]", fillcolor="#e58139"] ;
144 -> 146 ;
147 [label="X[20] <= 18.5\ngini = 0.5\nsamples = 2\nvalue = [1, 0, 1]\nclass = y[0]", fillcolor="#ffffff"] ;
141 -> 147 ;
148 [label="gini = 0.0\nsamples = 1\nvalue = [1, 0, 0]\nclass = y[0]", fillcolor="#e58139"] ;
147 -> 148 ;
149 [label="gini = 0.0\nsamples = 1\nvalue = [0, 0, 1]\nclass = y[2]", fillcolor="#8139e5"] ;
147 -> 149 ;
150 [label="gini = 0.0\nsamples = 2\nvalue = [2, 0, 0]\nclass = y[0]", fillcolor="#e58139"] ;
140 -> 150 ;
151 [label="gini = 0.0\nsamples = 2\nvalue = [0, 0, 2]\nclass = y[2]", fillcolor="#8139e5"] ;
139 -> 151 ;
152 [label="gini = 0.0\nsamples = 3\nvalue = [3, 0, 0]\nclass = y[0]", fillcolor="#e58139"] ;
138 -> 152 ;
153 [label="X[27] <= 1.5\ngini = 0.486\nsamples = 12\nvalue = [5, 0, 7]\nclass = y[2]", fillcolor="#dbc6f8"] ;
137 -> 153 ;
154 [label="gini = 0.0\nsamples = 4\nvalue = [0, 0, 4]\nclass = y[2]", fillcolor="#8139e5"] ;
153 -> 154 ;
155 [label="X[7] <= 0.5\ngini = 0.469\nsamples = 8\nvalue = [5, 0, 3]\nclass = y[0]", fillcolor="#f5cdb0"] ;
153 -> 155 ;
156 [label="X[2] <= 40.0\ngini = 0.278\nsamples = 6\nvalue = [5, 0, 1]\nclass = y[0]", fillcolor="#ea9a61"] ;
155 -> 156 ;
157 [label="gini = 0.0\nsamples = 5\nvalue = [5, 0, 0]\nclass = y[0]", fillcolor="#e58139"] ;
156 -> 157 ;
158 [label="gini = 0.0\nsamples = 1\nvalue = [0, 0, 1]\nclass = y[2]", fillcolor="#8139e5"] ;
156 -> 158 ;
159 [label="gini = 0.0\nsamples = 2\nvalue = [0, 0, 2]\nclass = y[2]", fillcolor="#8139e5"] ;
155 -> 159 ;
160 [label="X[0] <= 54.218\ngini = 0.535\nsamples = 86\nvalue = [23, 10, 53]\nclass = y[2]", fillcolor="#c3a1f3"] ;
116 -> 160 ;
161 [label="X[1] <= 2.5\ngini = 0.644\nsamples = 38\nvalue = [15, 8, 15]\nclass = y[0]", fillcolor="#ffffff"] ;
160 -> 161 ;
162 [label="X[23] <= 2.5\ngini = 0.614\nsamples = 29\nvalue = [8, 6, 15]\nclass = y[2]", fillcolor="#d5bdf6"] ;
161 -> 162 ;
163 [label="X[11] <= 2.5\ngini = 0.569\nsamples = 24\nvalue = [4, 6, 14]\nclass = y[2]", fillcolor="#c7a7f3"] ;
162 -> 163 ;
164 [label="X[10] <= 0.5\ngini = 0.632\nsamples = 19\nvalue = [4, 6, 9]\nclass = y[2]", fillcolor="#e2d1f9"] ;
163 -> 164 ;
165 [label="X[27] <= 2.5\ngini = 0.346\nsamples = 9\nvalue = [2, 0, 7]\nclass = y[2]", fillcolor="#a572ec"] ;
164 -> 165 ;
166 [label="gini = 0.0\nsamples = 7\nvalue = [0, 0, 7]\nclass = y[2]", fillcolor="#8139e5"] ;
165 -> 166 ;
167 [label="gini = 0.0\nsamples = 2\nvalue = [2, 0, 0]\nclass = y[0]", fillcolor="#e58139"] ;
165 -> 167 ;
168 [label="X[20] <= 3.5\ngini = 0.56\nsamples = 10\nvalue = [2, 6, 2]\nclass = y[1]", fillcolor="#9cf2c0"] ;
164 -> 168 ;
169 [label="gini = 0.0\nsamples = 2\nvalue = [0, 0, 2]\nclass = y[2]", fillcolor="#8139e5"] ;
168 -> 169 ;
170 [label="X[11] <= 1.5\ngini = 0.375\nsamples = 8\nvalue = [2, 6, 0]\nclass = y[1]", fillcolor="#7beeab"] ;
168 -> 170 ;
171 [label="gini = 0.0\nsamples = 5\nvalue = [0, 5, 0]\nclass = y[1]", fillcolor="#39e581"] ;
170 -> 171 ;
172 [label="X[25] <= 2.0\ngini = 0.444\nsamples = 3\nvalue = [2, 1, 0]\nclass = y[0]", fillcolor="#f2c09c"] ;
170 -> 172 ;
173 [label="gini = 0.0\nsamples = 2\nvalue = [2, 0, 0]\nclass = y[0]", fillcolor="#e58139"] ;
172 -> 173 ;
174 [label="gini = 0.0\nsamples = 1\nvalue = [0, 1, 0]\nclass = y[1]", fillcolor="#39e581"] ;
172 -> 174 ;
175 [label="gini = 0.0\nsamples = 5\nvalue = [0, 0, 5]\nclass = y[2]", fillcolor="#8139e5"] ;
163 -> 175 ;
176 [label="X[2] <= 33.5\ngini = 0.32\nsamples = 5\nvalue = [4, 0, 1]\nclass = y[0]", fillcolor="#eca06a"] ;
162 -> 176 ;
177 [label="gini = 0.0\nsamples = 4\nvalue = [4, 0, 0]\nclass = y[0]", fillcolor="#e58139"] ;
176 -> 177 ;
178 [label="gini = 0.0\nsamples = 1\nvalue = [0, 0, 1]\nclass = y[2]", fillcolor="#8139e5"] ;
176 -> 178 ;
179 [label="X[5] <= 2.0\ngini = 0.346\nsamples = 9\nvalue = [7, 2, 0]\nclass = y[0]", fillcolor="#eca572"] ;
161 -> 179 ;
180 [label="gini = 0.0\nsamples = 7\nvalue = [7, 0, 0]\nclass = y[0]", fillcolor="#e58139"] ;
179 -> 180 ;
181 [label="gini = 0.0\nsamples = 2\nvalue = [0, 2, 0]\nclass = y[1]", fillcolor="#39e581"] ;
179 -> 181 ;
182 [label="X[2] <= 35.5\ngini = 0.344\nsamples = 48\nvalue = [8, 2, 38]\nclass = y[2]", fillcolor="#a06aec"] ;
160 -> 182 ;
183 [label="X[27] <= 3.5\ngini = 0.213\nsamples = 34\nvalue = [3, 1, 30]\nclass = y[2]", fillcolor="#9153e8"] ;
182 -> 183 ;
184 [label="X[20] <= 16.0\ngini = 0.169\nsamples = 33\nvalue = [2, 1, 30]\nclass = y[2]", fillcolor="#8d4ce8"] ;
183 -> 184 ;
185 [label="X[19] <= 1.5\ngini = 0.119\nsamples = 32\nvalue = [1, 1, 30]\nclass = y[2]", fillcolor="#8946e7"] ;
184 -> 185 ;
186 [label="X[28] <= 4.0\ngini = 0.064\nsamples = 30\nvalue = [0, 1, 29]\nclass = y[2]", fillcolor="#8540e6"] ;
185 -> 186 ;
187 [label="gini = 0.0\nsamples = 27\nvalue = [0, 0, 27]\nclass = y[2]", fillcolor="#8139e5"] ;
186 -> 187 ;
188 [label="X[17] <= 1.0\ngini = 0.444\nsamples = 3\nvalue = [0, 1, 2]\nclass = y[2]", fillcolor="#c09cf2"] ;
186 -> 188 ;
189 [label="gini = 0.0\nsamples = 2\nvalue = [0, 0, 2]\nclass = y[2]", fillcolor="#8139e5"] ;
188 -> 189 ;
190 [label="gini = 0.0\nsamples = 1\nvalue = [0, 1, 0]\nclass = y[1]", fillcolor="#39e581"] ;
188 -> 190 ;
191 [label="X[18] <= 8.5\ngini = 0.5\nsamples = 2\nvalue = [1, 0, 1]\nclass = y[0]", fillcolor="#ffffff"] ;
185 -> 191 ;
192 [label="gini = 0.0\nsamples = 1\nvalue = [0, 0, 1]\nclass = y[2]", fillcolor="#8139e5"] ;
191 -> 192 ;
193 [label="gini = 0.0\nsamples = 1\nvalue = [1, 0, 0]\nclass = y[0]", fillcolor="#e58139"] ;
191 -> 193 ;
194 [label="gini = 0.0\nsamples = 1\nvalue = [1, 0, 0]\nclass = y[0]", fillcolor="#e58139"] ;
184 -> 194 ;
195 [label="gini = 0.0\nsamples = 1\nvalue = [1, 0, 0]\nclass = y[0]", fillcolor="#e58139"] ;
183 -> 195 ;
196 [label="X[14] <= 0.5\ngini = 0.541\nsamples = 14\nvalue = [5, 1, 8]\nclass = y[2]", fillcolor="#d5bdf6"] ;
182 -> 196 ;
197 [label="X[18] <= 32.5\ngini = 0.43\nsamples = 11\nvalue = [2, 1, 8]\nclass = y[2]", fillcolor="#ab7bee"] ;
196 -> 197 ;
198 [label="gini = 0.0\nsamples = 7\nvalue = [0, 0, 7]\nclass = y[2]", fillcolor="#8139e5"] ;
197 -> 198 ;
199 [label="X[30] <= 0.5\ngini = 0.625\nsamples = 4\nvalue = [2, 1, 1]\nclass = y[0]", fillcolor="#f6d5bd"] ;
197 -> 199 ;
200 [label="X[20] <= 7.5\ngini = 0.5\nsamples = 2\nvalue = [0, 1, 1]\nclass = y[1]", fillcolor="#ffffff"] ;
199 -> 200 ;
201 [label="gini = 0.0\nsamples = 1\nvalue = [0, 0, 1]\nclass = y[2]", fillcolor="#8139e5"] ;
200 -> 201 ;
202 [label="gini = 0.0\nsamples = 1\nvalue = [0, 1, 0]\nclass = y[1]", fillcolor="#39e581"] ;
200 -> 202 ;
203 [label="gini = 0.0\nsamples = 2\nvalue = [2, 0, 0]\nclass = y[0]", fillcolor="#e58139"] ;
199 -> 203 ;
204 [label="gini = 0.0\nsamples = 3\nvalue = [3, 0, 0]\nclass = y[0]", fillcolor="#e58139"] ;
196 -> 204 ;
205 [label="X[1] <= 2.5\ngini = 0.556\nsamples = 87\nvalue = [52, 13, 22]\nclass = y[0]", fillcolor="#f3c5a4"] ;
111 -> 205 ;
206 [label="X[2] <= 11.0\ngini = 0.463\nsamples = 57\nvalue = [40, 9, 8]\nclass = y[0]", fillcolor="#eeae7f"] ;
205 -> 206 ;
207 [label="X[8] <= 2.5\ngini = 0.074\nsamples = 26\nvalue = [25, 0, 1]\nclass = y[0]", fillcolor="#e68641"] ;
206 -> 207 ;
208 [label="gini = 0.0\nsamples = 25\nvalue = [25, 0, 0]\nclass = y[0]", fillcolor="#e58139"] ;
207 -> 208 ;
209 [label="gini = 0.0\nsamples = 1\nvalue = [0, 0, 1]\nclass = y[2]", fillcolor="#8139e5"] ;
207 -> 209 ;
210 [label="X[2] <= 26.5\ngini = 0.631\nsamples = 31\nvalue = [15, 9, 7]\nclass = y[0]", fillcolor="#f8ddc9"] ;
206 -> 210 ;
211 [label="X[20] <= 3.5\ngini = 0.662\nsamples = 21\nvalue = [6, 8, 7]\nclass = y[1]", fillcolor="#f1fdf6"] ;
210 -> 211 ;
212 [label="X[2] <= 12.5\ngini = 0.444\nsamples = 9\nvalue = [6, 0, 3]\nclass = y[0]", fillcolor="#f2c09c"] ;
211 -> 212 ;
213 [label="gini = 0.0\nsamples = 3\nvalue = [0, 0, 3]\nclass = y[2]", fillcolor="#8139e5"] ;
212 -> 213 ;
214 [label="gini = 0.0\nsamples = 6\nvalue = [6, 0, 0]\nclass = y[0]", fillcolor="#e58139"] ;
212 -> 214 ;
215 [label="X[28] <= 2.5\ngini = 0.444\nsamples = 12\nvalue = [0, 8, 4]\nclass = y[1]", fillcolor="#9cf2c0"] ;
211 -> 215 ;
216 [label="X[0] <= 53.292\ngini = 0.198\nsamples = 9\nvalue = [0, 8, 1]\nclass = y[1]", fillcolor="#52e891"] ;
215 -> 216 ;
217 [label="gini = 0.0\nsamples = 8\nvalue = [0, 8, 0]\nclass = y[1]", fillcolor="#39e581"] ;
216 -> 217 ;
218 [label="gini = 0.0\nsamples = 1\nvalue = [0, 0, 1]\nclass = y[2]", fillcolor="#8139e5"] ;
216 -> 218 ;
219 [label="gini = 0.0\nsamples = 3\nvalue = [0, 0, 3]\nclass = y[2]", fillcolor="#8139e5"] ;
215 -> 219 ;
220 [label="X[14] <= 2.5\ngini = 0.18\nsamples = 10\nvalue = [9, 1, 0]\nclass = y[0]", fillcolor="#e88f4f"] ;
210 -> 220 ;
221 [label="gini = 0.0\nsamples = 1\nvalue = [0, 1, 0]\nclass = y[1]", fillcolor="#39e581"] ;
220 -> 221 ;
222 [label="gini = 0.0\nsamples = 9\nvalue = [9, 0, 0]\nclass = y[0]", fillcolor="#e58139"] ;
220 -> 222 ;
223 [label="X[15] <= 6.5\ngini = 0.604\nsamples = 30\nvalue = [12, 4, 14]\nclass = y[2]", fillcolor="#f1e9fc"] ;
205 -> 223 ;
224 [label="X[18] <= 4.5\ngini = 0.278\nsamples = 12\nvalue = [2, 0, 10]\nclass = y[2]", fillcolor="#9a61ea"] ;
223 -> 224 ;
225 [label="gini = 0.0\nsamples = 1\nvalue = [1, 0, 0]\nclass = y[0]", fillcolor="#e58139"] ;
224 -> 225 ;
226 [label="X[22] <= 0.5\ngini = 0.165\nsamples = 11\nvalue = [1, 0, 10]\nclass = y[2]", fillcolor="#8e4de8"] ;
224 -> 226 ;
227 [label="gini = 0.0\nsamples = 10\nvalue = [0, 0, 10]\nclass = y[2]", fillcolor="#8139e5"] ;
226 -> 227 ;
228 [label="gini = 0.0\nsamples = 1\nvalue = [1, 0, 0]\nclass = y[0]", fillcolor="#e58139"] ;
226 -> 228 ;
229 [label="X[8] <= -0.5\ngini = 0.593\nsamples = 18\nvalue = [10, 4, 4]\nclass = y[0]", fillcolor="#f4c9aa"] ;
223 -> 229 ;
230 [label="X[28] <= 0.5\ngini = 0.5\nsamples = 4\nvalue = [0, 2, 2]\nclass = y[1]", fillcolor="#ffffff"] ;
229 -> 230 ;
231 [label="gini = 0.0\nsamples = 2\nvalue = [0, 0, 2]\nclass = y[2]", fillcolor="#8139e5"] ;
230 -> 231 ;
232 [label="gini = 0.0\nsamples = 2\nvalue = [0, 2, 0]\nclass = y[1]", fillcolor="#39e581"] ;
230 -> 232 ;
233 [label="X[11] <= 1.5\ngini = 0.449\nsamples = 14\nvalue = [10, 2, 2]\nclass = y[0]", fillcolor="#eeab7b"] ;
229 -> 233 ;
234 [label="X[25] <= 0.5\ngini = 0.625\nsamples = 4\nvalue = [1, 1, 2]\nclass = y[2]", fillcolor="#d5bdf6"] ;
233 -> 234 ;
235 [label="gini = 0.0\nsamples = 2\nvalue = [0, 0, 2]\nclass = y[2]", fillcolor="#8139e5"] ;
234 -> 235 ;
236 [label="X[25] <= 1.5\ngini = 0.5\nsamples = 2\nvalue = [1, 1, 0]\nclass = y[0]", fillcolor="#ffffff"] ;
234 -> 236 ;
237 [label="gini = 0.0\nsamples = 1\nvalue = [0, 1, 0]\nclass = y[1]", fillcolor="#39e581"] ;
236 -> 237 ;
238 [label="gini = 0.0\nsamples = 1\nvalue = [1, 0, 0]\nclass = y[0]", fillcolor="#e58139"] ;
236 -> 238 ;
239 [label="X[17] <= 1.5\ngini = 0.18\nsamples = 10\nvalue = [9, 1, 0]\nclass = y[0]", fillcolor="#e88f4f"] ;
233 -> 239 ;
240 [label="gini = 0.0\nsamples = 9\nvalue = [9, 0, 0]\nclass = y[0]", fillcolor="#e58139"] ;
239 -> 240 ;
241 [label="gini = 0.0\nsamples = 1\nvalue = [0, 1, 0]\nclass = y[1]", fillcolor="#39e581"] ;
239 -> 241 ;
242 [label="X[23] <= 0.5\ngini = 0.389\nsamples = 106\nvalue = [25, 2, 79]\nclass = y[2]", fillcolor="#ab7bee"] ;
110 -> 242 ;
243 [label="X[0] <= 66.974\ngini = 0.375\nsamples = 8\nvalue = [6, 0, 2]\nclass = y[0]", fillcolor="#eeab7b"] ;
242 -> 243 ;
244 [label="gini = 0.0\nsamples = 1\nvalue = [0, 0, 1]\nclass = y[2]", fillcolor="#8139e5"] ;
243 -> 244 ;
245 [label="X[1] <= 1.5\ngini = 0.245\nsamples = 7\nvalue = [6, 0, 1]\nclass = y[0]", fillcolor="#e9965a"] ;
243 -> 245 ;
246 [label="X[28] <= 0.5\ngini = 0.444\nsamples = 3\nvalue = [2, 0, 1]\nclass = y[0]", fillcolor="#f2c09c"] ;
245 -> 246 ;
247 [label="gini = 0.0\nsamples = 2\nvalue = [2, 0, 0]\nclass = y[0]", fillcolor="#e58139"] ;
246 -> 247 ;
248 [label="gini = 0.0\nsamples = 1\nvalue = [0, 0, 1]\nclass = y[2]", fillcolor="#8139e5"] ;
246 -> 248 ;
249 [label="gini = 0.0\nsamples = 4\nvalue = [4, 0, 0]\nclass = y[0]", fillcolor="#e58139"] ;
245 -> 249 ;
250 [label="X[21] <= 1.5\ngini = 0.345\nsamples = 98\nvalue = [19, 2, 77]\nclass = y[2]", fillcolor="#a26eec"] ;
242 -> 250 ;
251 [label="X[15] <= 6.5\ngini = 0.325\nsamples = 96\nvalue = [17, 2, 77]\nclass = y[2]", fillcolor="#9f69eb"] ;
250 -> 251 ;
252 [label="X[13] <= 6.5\ngini = 0.114\nsamples = 33\nvalue = [2, 0, 31]\nclass = y[2]", fillcolor="#8946e7"] ;
251 -> 252 ;
253 [label="X[20] <= 1.5\ngini = 0.061\nsamples = 32\nvalue = [1, 0, 31]\nclass = y[2]", fillcolor="#853fe6"] ;
252 -> 253 ;
254 [label="X[2] <= 34.0\ngini = 0.5\nsamples = 2\nvalue = [1, 0, 1]\nclass = y[0]", fillcolor="#ffffff"] ;
253 -> 254 ;
255 [label="gini = 0.0\nsamples = 1\nvalue = [0, 0, 1]\nclass = y[2]", fillcolor="#8139e5"] ;
254 -> 255 ;
256 [label="gini = 0.0\nsamples = 1\nvalue = [1, 0, 0]\nclass = y[0]", fillcolor="#e58139"] ;
254 -> 256 ;
257 [label="gini = 0.0\nsamples = 30\nvalue = [0, 0, 30]\nclass = y[2]", fillcolor="#8139e5"] ;
253 -> 257 ;
258 [label="gini = 0.0\nsamples = 1\nvalue = [1, 0, 0]\nclass = y[0]", fillcolor="#e58139"] ;
252 -> 258 ;
259 [label="X[18] <= 45.5\ngini = 0.409\nsamples = 63\nvalue = [15, 2, 46]\nclass = y[2]", fillcolor="#ae7fee"] ;
251 -> 259 ;
260 [label="X[2] <= 46.0\ngini = 0.48\nsamples = 46\nvalue = [14, 2, 30]\nclass = y[2]", fillcolor="#c09cf2"] ;
259 -> 260 ;
261 [label="X[25] <= 0.5\ngini = 0.421\nsamples = 42\nvalue = [11, 1, 30]\nclass = y[2]", fillcolor="#b286ef"] ;
260 -> 261 ;
262 [label="X[0] <= 66.058\ngini = 0.298\nsamples = 33\nvalue = [6, 0, 27]\nclass = y[2]", fillcolor="#9d65eb"] ;
261 -> 262 ;
263 [label="gini = 0.0\nsamples = 1\nvalue = [1, 0, 0]\nclass = y[0]", fillcolor="#e58139"] ;
262 -> 263 ;
264 [label="X[9] <= 0.5\ngini = 0.264\nsamples = 32\nvalue = [5, 0, 27]\nclass = y[2]", fillcolor="#985eea"] ;
262 -> 264 ;
265 [label="X[21] <= 0.5\ngini = 0.388\nsamples = 19\nvalue = [5, 0, 14]\nclass = y[2]", fillcolor="#ae80ee"] ;
264 -> 265 ;
266 [label="X[17] <= 0.0\ngini = 0.346\nsamples = 18\nvalue = [4, 0, 14]\nclass = y[2]", fillcolor="#a572ec"] ;
265 -> 266 ;
267 [label="X[0] <= 72.373\ngini = 0.291\nsamples = 17\nvalue = [3, 0, 14]\nclass = y[2]", fillcolor="#9c63eb"] ;
266 -> 267 ;
268 [label="gini = 0.0\nsamples = 7\nvalue = [0, 0, 7]\nclass = y[2]", fillcolor="#8139e5"] ;
267 -> 268 ;
269 [label="X[11] <= 0.5\ngini = 0.42\nsamples = 10\nvalue = [3, 0, 7]\nclass = y[2]", fillcolor="#b78ef0"] ;
267 -> 269 ;
270 [label="gini = 0.0\nsamples = 2\nvalue = [2, 0, 0]\nclass = y[0]", fillcolor="#e58139"] ;
269 -> 270 ;
271 [label="X[18] <= 16.5\ngini = 0.219\nsamples = 8\nvalue = [1, 0, 7]\nclass = y[2]", fillcolor="#9355e9"] ;
269 -> 271 ;
272 [label="gini = 0.0\nsamples = 1\nvalue = [1, 0, 0]\nclass = y[0]", fillcolor="#e58139"] ;
271 -> 272 ;
273 [label="gini = 0.0\nsamples = 7\nvalue = [0, 0, 7]\nclass = y[2]", fillcolor="#8139e5"] ;
271 -> 273 ;
274 [label="gini = 0.0\nsamples = 1\nvalue = [1, 0, 0]\nclass = y[0]", fillcolor="#e58139"] ;
266 -> 274 ;
275 [label="gini = 0.0\nsamples = 1\nvalue = [1, 0, 0]\nclass = y[0]", fillcolor="#e58139"] ;
265 -> 275 ;
276 [label="gini = 0.0\nsamples = 13\nvalue = [0, 0, 13]\nclass = y[2]", fillcolor="#8139e5"] ;
264 -> 276 ;
277 [label="X[8] <= 0.5\ngini = 0.568\nsamples = 9\nvalue = [5, 1, 3]\nclass = y[0]", fillcolor="#f6d5bd"] ;
261 -> 277 ;
278 [label="X[28] <= 0.5\ngini = 0.56\nsamples = 5\nvalue = [1, 1, 3]\nclass = y[2]", fillcolor="#c09cf2"] ;
277 -> 278 ;
279 [label="X[0] <= 73.77\ngini = 0.5\nsamples = 2\nvalue = [1, 1, 0]\nclass = y[0]", fillcolor="#ffffff"] ;
278 -> 279 ;
280 [label="gini = 0.0\nsamples = 1\nvalue = [1, 0, 0]\nclass = y[0]", fillcolor="#e58139"] ;
279 -> 280 ;
281 [label="gini = 0.0\nsamples = 1\nvalue = [0, 1, 0]\nclass = y[1]", fillcolor="#39e581"] ;
279 -> 281 ;
282 [label="gini = 0.0\nsamples = 3\nvalue = [0, 0, 3]\nclass = y[2]", fillcolor="#8139e5"] ;
278 -> 282 ;
283 [label="gini = 0.0\nsamples = 4\nvalue = [4, 0, 0]\nclass = y[0]", fillcolor="#e58139"] ;
277 -> 283 ;
284 [label="X[13] <= 0.5\ngini = 0.375\nsamples = 4\nvalue = [3, 1, 0]\nclass = y[0]", fillcolor="#eeab7b"] ;
260 -> 284 ;
285 [label="gini = 0.0\nsamples = 3\nvalue = [3, 0, 0]\nclass = y[0]", fillcolor="#e58139"] ;
284 -> 285 ;
286 [label="gini = 0.0\nsamples = 1\nvalue = [0, 1, 0]\nclass = y[1]", fillcolor="#39e581"] ;
284 -> 286 ;
287 [label="X[21] <= 0.5\ngini = 0.111\nsamples = 17\nvalue = [1, 0, 16]\nclass = y[2]", fillcolor="#8945e7"] ;
259 -> 287 ;
288 [label="gini = 0.0\nsamples = 16\nvalue = [0, 0, 16]\nclass = y[2]", fillcolor="#8139e5"] ;
287 -> 288 ;
289 [label="gini = 0.0\nsamples = 1\nvalue = [1, 0, 0]\nclass = y[0]", fillcolor="#e58139"] ;
287 -> 289 ;
290 [label="gini = 0.0\nsamples = 2\nvalue = [2, 0, 0]\nclass = y[0]", fillcolor="#e58139"] ;
250 -> 290 ;
}