digraph Tree {
node [shape=box, style="filled, rounded", color="black", fontname=helvetica] ;
edge [fontname=helvetica] ;
0 [label="X[0] <= 43.197\ngini = 0.667\nsamples = 584\nvalue = [191, 195, 198]\nclass = y[2]", fillcolor="#fefdff"] ;
1 [label="X[0] <= 36.532\ngini = 0.464\nsamples = 226\nvalue = [52, 156, 18]\nclass = y[1]", fillcolor="#89efb4"] ;
0 -> 1 [labeldistance=2.5, labelangle=45, headlabel="True"] ;
2 [label="X[2] <= 14.5\ngini = 0.347\nsamples = 137\nvalue = [24, 108, 5]\nclass = y[1]", fillcolor="#6ceca1"] ;
1 -> 2 ;
3 [label="X[25] <= 0.5\ngini = 0.32\nsamples = 131\nvalue = [20, 106, 5]\nclass = y[1]", fillcolor="#66eb9d"] ;
2 -> 3 ;
4 [label="X[2] <= 2.5\ngini = 0.482\nsamples = 43\nvalue = [10, 29, 4]\nclass = y[1]", fillcolor="#8df0b6"] ;
3 -> 4 ;
5 [label="X[27] <= 1.5\ngini = 0.59\nsamples = 23\nvalue = [8, 12, 3]\nclass = y[1]", fillcolor="#caf8dd"] ;
4 -> 5 ;
6 [label="X[2] <= 1.0\ngini = 0.526\nsamples = 21\nvalue = [8, 12, 1]\nclass = y[1]", fillcolor="#c2f7d8"] ;
5 -> 6 ;
7 [label="X[12] <= 0.5\ngini = 0.461\nsamples = 16\nvalue = [4, 11, 1]\nclass = y[1]", fillcolor="#8cf0b6"] ;
6 -> 7 ;
8 [label="gini = 0.0\nsamples = 8\nvalue = [0, 8, 0]\nclass = y[1]", fillcolor="#39e581"] ;
7 -> 8 ;
9 [label="X[29] <= 0.5\ngini = 0.594\nsamples = 8\nvalue = [4, 3, 1]\nclass = y[0]", fillcolor="#fae6d7"] ;
7 -> 9 ;
10 [label="X[17] <= 0.5\ngini = 0.444\nsamples = 3\nvalue = [0, 2, 1]\nclass = y[1]", fillcolor="#9cf2c0"] ;
9 -> 10 ;
11 [label="gini = 0.0\nsamples = 1\nvalue = [0, 0, 1]\nclass = y[2]", fillcolor="#8139e5"] ;
10 -> 11 ;
12 [label="gini = 0.0\nsamples = 2\nvalue = [0, 2, 0]\nclass = y[1]", fillcolor="#39e581"] ;
10 -> 12 ;
13 [label="X[0] <= 34.764\ngini = 0.32\nsamples = 5\nvalue = [4, 1, 0]\nclass = y[0]", fillcolor="#eca06a"] ;
9 -> 13 ;
14 [label="gini = 0.0\nsamples = 4\nvalue = [4, 0, 0]\nclass = y[0]", fillcolor="#e58139"] ;
13 -> 14 ;
15 [label="gini = 0.0\nsamples = 1\nvalue = [0, 1, 0]\nclass = y[1]", fillcolor="#39e581"] ;
13 -> 15 ;
16 [label="X[15] <= 5.5\ngini = 0.32\nsamples = 5\nvalue = [4, 1, 0]\nclass = y[0]", fillcolor="#eca06a"] ;
6 -> 16 ;
17 [label="gini = 0.0\nsamples = 1\nvalue = [0, 1, 0]\nclass = y[1]", fillcolor="#39e581"] ;
16 -> 17 ;
18 [label="gini = 0.0\nsamples = 4\nvalue = [4, 0, 0]\nclass = y[0]", fillcolor="#e58139"] ;
16 -> 18 ;
19 [label="gini = 0.0\nsamples = 2\nvalue = [0, 0, 2]\nclass = y[2]", fillcolor="#8139e5"] ;
5 -> 19 ;
20 [label="X[20] <= 8.0\ngini = 0.265\nsamples = 20\nvalue = [2, 17, 1]\nclass = y[1]", fillcolor="#5ae996"] ;
4 -> 20 ;
21 [label="gini = 0.0\nsamples = 13\nvalue = [0, 13, 0]\nclass = y[1]", fillcolor="#39e581"] ;
20 -> 21 ;
22 [label="X[13] <= 0.5\ngini = 0.571\nsamples = 7\nvalue = [2, 4, 1]\nclass = y[1]", fillcolor="#b0f5cd"] ;
20 -> 22 ;
23 [label="X[15] <= 5.0\ngini = 0.32\nsamples = 5\nvalue = [0, 4, 1]\nclass = y[1]", fillcolor="#6aeca0"] ;
22 -> 23 ;
24 [label="gini = 0.0\nsamples = 1\nvalue = [0, 0, 1]\nclass = y[2]", fillcolor="#8139e5"] ;
23 -> 24 ;
25 [label="gini = 0.0\nsamples = 4\nvalue = [0, 4, 0]\nclass = y[1]", fillcolor="#39e581"] ;
23 -> 25 ;
26 [label="gini = 0.0\nsamples = 2\nvalue = [2, 0, 0]\nclass = y[0]", fillcolor="#e58139"] ;
22 -> 26 ;
27 [label="X[3] <= 3.0\ngini = 0.221\nsamples = 88\nvalue = [10, 77, 1]\nclass = y[1]", fillcolor="#55e993"] ;
3 -> 27 ;
28 [label="X[23] <= 0.5\ngini = 0.206\nsamples = 87\nvalue = [9, 77, 1]\nclass = y[1]", fillcolor="#52e891"] ;
27 -> 28 ;
29 [label="X[13] <= 6.0\ngini = 0.096\nsamples = 60\nvalue = [2, 57, 1]\nclass = y[1]", fillcolor="#43e688"] ;
28 -> 29 ;
30 [label="X[20] <= 14.5\ngini = 0.067\nsamples = 58\nvalue = [2, 56, 0]\nclass = y[1]", fillcolor="#40e686"] ;
29 -> 30 ;
31 [label="X[29] <= 0.5\ngini = 0.036\nsamples = 54\nvalue = [1, 53, 0]\nclass = y[1]", fillcolor="#3de583"] ;
30 -> 31 ;
32 [label="X[10] <= 0.5\ngini = 0.18\nsamples = 10\nvalue = [1, 9, 0]\nclass = y[1]", fillcolor="#4fe88f"] ;
31 -> 32 ;
33 [label="gini = 0.0\nsamples = 1\nvalue = [1, 0, 0]\nclass = y[0]", fillcolor="#e58139"] ;
32 -> 33 ;
34 [label="gini = 0.0\nsamples = 9\nvalue = [0, 9, 0]\nclass = y[1]", fillcolor="#39e581"] ;
32 -> 34 ;
35 [label="gini = 0.0\nsamples = 44\nvalue = [0, 44, 0]\nclass = y[1]", fillcolor="#39e581"] ;
31 -> 35 ;
36 [label="X[16] <= 1.0\ngini = 0.375\nsamples = 4\nvalue = [1, 3, 0]\nclass = y[1]", fillcolor="#7beeab"] ;
30 -> 36 ;
37 [label="gini = 0.0\nsamples = 1\nvalue = [1, 0, 0]\nclass = y[0]", fillcolor="#e58139"] ;
36 -> 37 ;
38 [label="gini = 0.0\nsamples = 3\nvalue = [0, 3, 0]\nclass = y[1]", fillcolor="#39e581"] ;
36 -> 38 ;
39 [label="X[11] <= 1.0\ngini = 0.5\nsamples = 2\nvalue = [0, 1, 1]\nclass = y[1]", fillcolor="#ffffff"] ;
29 -> 39 ;
40 [label="gini = 0.0\nsamples = 1\nvalue = [0, 0, 1]\nclass = y[2]", fillcolor="#8139e5"] ;
39 -> 40 ;
41 [label="gini = 0.0\nsamples = 1\nvalue = [0, 1, 0]\nclass = y[1]", fillcolor="#39e581"] ;
39 -> 41 ;
42 [label="X[2] <= 4.5\ngini = 0.384\nsamples = 27\nvalue = [7, 20, 0]\nclass = y[1]", fillcolor="#7eeead"] ;
28 -> 42 ;
43 [label="X[14] <= 0.5\ngini = 0.219\nsamples = 16\nvalue = [2, 14, 0]\nclass = y[1]", fillcolor="#55e993"] ;
42 -> 43 ;
44 [label="X[5] <= 0.5\ngini = 0.48\nsamples = 5\nvalue = [2, 3, 0]\nclass = y[1]", fillcolor="#bdf6d5"] ;
43 -> 44 ;
45 [label="X[24] <= 0.5\ngini = 0.444\nsamples = 3\nvalue = [2, 1, 0]\nclass = y[0]", fillcolor="#f2c09c"] ;
44 -> 45 ;
46 [label="gini = 0.0\nsamples = 1\nvalue = [0, 1, 0]\nclass = y[1]", fillcolor="#39e581"] ;
45 -> 46 ;
47 [label="gini = 0.0\nsamples = 2\nvalue = [2, 0, 0]\nclass = y[0]", fillcolor="#e58139"] ;
45 -> 47 ;
48 [label="gini = 0.0\nsamples = 2\nvalue = [0, 2, 0]\nclass = y[1]", fillcolor="#39e581"] ;
44 -> 48 ;
49 [label="gini = 0.0\nsamples = 11\nvalue = [0, 11, 0]\nclass = y[1]", fillcolor="#39e581"] ;
43 -> 49 ;
50 [label="X[11] <= 1.5\ngini = 0.496\nsamples = 11\nvalue = [5, 6, 0]\nclass = y[1]", fillcolor="#defbea"] ;
42 -> 50 ;
51 [label="X[9] <= 2.5\ngini = 0.408\nsamples = 7\nvalue = [5, 2, 0]\nclass = y[0]", fillcolor="#efb388"] ;
50 -> 51 ;
52 [label="gini = 0.0\nsamples = 5\nvalue = [5, 0, 0]\nclass = y[0]", fillcolor="#e58139"] ;
51 -> 52 ;
53 [label="gini = 0.0\nsamples = 2\nvalue = [0, 2, 0]\nclass = y[1]", fillcolor="#39e581"] ;
51 -> 53 ;
54 [label="gini = 0.0\nsamples = 4\nvalue = [0, 4, 0]\nclass = y[1]", fillcolor="#39e581"] ;
50 -> 54 ;
55 [label="gini = 0.0\nsamples = 1\nvalue = [1, 0, 0]\nclass = y[0]", fillcolor="#e58139"] ;
27 -> 55 ;
56 [label="X[18] <= 30.5\ngini = 0.444\nsamples = 6\nvalue = [4, 2, 0]\nclass = y[0]", fillcolor="#f2c09c"] ;
2 -> 56 ;
57 [label="gini = 0.0\nsamples = 4\nvalue = [4, 0, 0]\nclass = y[0]", fillcolor="#e58139"] ;
56 -> 57 ;
58 [label="gini = 0.0\nsamples = 2\nvalue = [0, 2, 0]\nclass = y[1]", fillcolor="#39e581"] ;
56 -> 58 ;
59 [label="X[0] <= 40.482\ngini = 0.589\nsamples = 89\nvalue = [28, 48, 13]\nclass = y[1]", fillcolor="#bef6d6"] ;
1 -> 59 ;
60 [label="X[6] <= 0.5\ngini = 0.577\nsamples = 44\nvalue = [21, 19, 4]\nclass = y[0]", fillcolor="#fdf5ef"] ;
59 -> 60 ;
61 [label="gini = 0.0\nsamples = 9\nvalue = [9, 0, 0]\nclass = y[0]", fillcolor="#e58139"] ;
60 -> 61 ;
62 [label="X[2] <= 18.5\ngini = 0.575\nsamples = 35\nvalue = [12, 19, 4]\nclass = y[1]", fillcolor="#c3f7d9"] ;
60 -> 62 ;
63 [label="X[2] <= 13.5\ngini = 0.553\nsamples = 32\nvalue = [9, 19, 4]\nclass = y[1]", fillcolor="#a9f4c8"] ;
62 -> 63 ;
64 [label="X[11] <= 2.5\ngini = 0.635\nsamples = 21\nvalue = [9, 8, 4]\nclass = y[0]", fillcolor="#fdf5f0"] ;
63 -> 64 ;
65 [label="X[20] <= 3.5\ngini = 0.625\nsamples = 16\nvalue = [4, 8, 4]\nclass = y[1]", fillcolor="#bdf6d5"] ;
64 -> 65 ;
66 [label="X[18] <= 22.0\ngini = 0.612\nsamples = 7\nvalue = [3, 1, 3]\nclass = y[0]", fillcolor="#ffffff"] ;
65 -> 66 ;
67 [label="gini = 0.0\nsamples = 3\nvalue = [3, 0, 0]\nclass = y[0]", fillcolor="#e58139"] ;
66 -> 67 ;
68 [label="X[12] <= 0.5\ngini = 0.375\nsamples = 4\nvalue = [0, 1, 3]\nclass = y[2]", fillcolor="#ab7bee"] ;
66 -> 68 ;
69 [label="gini = 0.0\nsamples = 3\nvalue = [0, 0, 3]\nclass = y[2]", fillcolor="#8139e5"] ;
68 -> 69 ;
70 [label="gini = 0.0\nsamples = 1\nvalue = [0, 1, 0]\nclass = y[1]", fillcolor="#39e581"] ;
68 -> 70 ;
71 [label="X[0] <= 39.949\ngini = 0.37\nsamples = 9\nvalue = [1, 7, 1]\nclass = y[1]", fillcolor="#6aeca0"] ;
65 -> 71 ;
72 [label="X[11] <= 0.5\ngini = 0.219\nsamples = 8\nvalue = [0, 7, 1]\nclass = y[1]", fillcolor="#55e993"] ;
71 -> 72 ;
73 [label="gini = 0.0\nsamples = 1\nvalue = [0, 0, 1]\nclass = y[2]", fillcolor="#8139e5"] ;
72 -> 73 ;
74 [label="gini = 0.0\nsamples = 7\nvalue = [0, 7, 0]\nclass = y[1]", fillcolor="#39e581"] ;
72 -> 74 ;
75 [label="gini = 0.0\nsamples = 1\nvalue = [1, 0, 0]\nclass = y[0]", fillcolor="#e58139"] ;
71 -> 75 ;
76 [label="gini = 0.0\nsamples = 5\nvalue = [5, 0, 0]\nclass = y[0]", fillcolor="#e58139"] ;
64 -> 76 ;
77 [label="gini = 0.0\nsamples = 11\nvalue = [0, 11, 0]\nclass = y[1]", fillcolor="#39e581"] ;
63 -> 77 ;
78 [label="gini = 0.0\nsamples = 3\nvalue = [3, 0, 0]\nclass = y[0]", fillcolor="#e58139"] ;
62 -> 78 ;
79 [label="X[3] <= 1.0\ngini = 0.52\nsamples = 45\nvalue = [7, 29, 9]\nclass = y[1]", fillcolor="#91f1b9"] ;
59 -> 79 ;
80 [label="X[10] <= 0.5\ngini = 0.464\nsamples = 40\nvalue = [7, 28, 5]\nclass = y[1]", fillcolor="#81eeaf"] ;
79 -> 80 ;
81 [label="X[11] <= 2.5\ngini = 0.642\nsamples = 9\nvalue = [4, 3, 2]\nclass = y[0]", fillcolor="#fbeade"] ;
80 -> 81 ;
82 [label="X[11] <= 1.5\ngini = 0.49\nsamples = 7\nvalue = [4, 3, 0]\nclass = y[0]", fillcolor="#f8e0ce"] ;
81 -> 82 ;
83 [label="X[0] <= 41.633\ngini = 0.375\nsamples = 4\nvalue = [1, 3, 0]\nclass = y[1]", fillcolor="#7beeab"] ;
82 -> 83 ;
84 [label="gini = 0.0\nsamples = 1\nvalue = [1, 0, 0]\nclass = y[0]", fillcolor="#e58139"] ;
83 -> 84 ;
85 [label="gini = 0.0\nsamples = 3\nvalue = [0, 3, 0]\nclass = y[1]", fillcolor="#39e581"] ;
83 -> 85 ;
86 [label="gini = 0.0\nsamples = 3\nvalue = [3, 0, 0]\nclass = y[0]", fillcolor="#e58139"] ;
82 -> 86 ;
87 [label="gini = 0.0\nsamples = 2\nvalue = [0, 0, 2]\nclass = y[2]", fillcolor="#8139e5"] ;
81 -> 87 ;
88 [label="X[8] <= 1.5\ngini = 0.331\nsamples = 31\nvalue = [3, 25, 3]\nclass = y[1]", fillcolor="#63eb9c"] ;
80 -> 88 ;
89 [label="X[20] <= 17.5\ngini = 0.291\nsamples = 30\nvalue = [2, 25, 3]\nclass = y[1]", fillcolor="#5eea98"] ;
88 -> 89 ;
90 [label="X[20] <= 2.5\ngini = 0.247\nsamples = 29\nvalue = [2, 25, 2]\nclass = y[1]", fillcolor="#56e994"] ;
89 -> 90 ;
91 [label="X[24] <= 0.5\ngini = 0.48\nsamples = 5\nvalue = [0, 3, 2]\nclass = y[1]", fillcolor="#bdf6d5"] ;
90 -> 91 ;
92 [label="gini = 0.0\nsamples = 3\nvalue = [0, 3, 0]\nclass = y[1]", fillcolor="#39e581"] ;
91 -> 92 ;
93 [label="gini = 0.0\nsamples = 2\nvalue = [0, 0, 2]\nclass = y[2]", fillcolor="#8139e5"] ;
91 -> 93 ;
94 [label="X[13] <= 0.5\ngini = 0.153\nsamples = 24\nvalue = [2, 22, 0]\nclass = y[1]", fillcolor="#4be78c"] ;
90 -> 94 ;
95 [label="gini = 0.0\nsamples = 18\nvalue = [0, 18, 0]\nclass = y[1]", fillcolor="#39e581"] ;
94 -> 95 ;
96 [label="X[27] <= 1.5\ngini = 0.444\nsamples = 6\nvalue = [2, 4, 0]\nclass = y[1]", fillcolor="#9cf2c0"] ;
94 -> 96 ;
97 [label="gini = 0.0\nsamples = 4\nvalue = [0, 4, 0]\nclass = y[1]", fillcolor="#39e581"] ;
96 -> 97 ;
98 [label="gini = 0.0\nsamples = 2\nvalue = [2, 0, 0]\nclass = y[0]", fillcolor="#e58139"] ;
96 -> 98 ;
99 [label="gini = 0.0\nsamples = 1\nvalue = [0, 0, 1]\nclass = y[2]", fillcolor="#8139e5"] ;
89 -> 99 ;
100 [label="gini = 0.0\nsamples = 1\nvalue = [1, 0, 0]\nclass = y[0]", fillcolor="#e58139"] ;
88 -> 100 ;
101 [label="X[10] <= 0.5\ngini = 0.32\nsamples = 5\nvalue = [0, 1, 4]\nclass = y[2]", fillcolor="#a06aec"] ;
79 -> 101 ;
102 [label="gini = 0.0\nsamples = 1\nvalue = [0, 1, 0]\nclass = y[1]", fillcolor="#39e581"] ;
101 -> 102 ;
103 [label="gini = 0.0\nsamples = 4\nvalue = [0, 0, 4]\nclass = y[2]", fillcolor="#8139e5"] ;
101 -> 103 ;
104 [label="X[0] <= 65.604\ngini = 0.585\nsamples = 358\nvalue = [139, 39, 180]\nclass = y[2]", fillcolor="#e7dafa"] ;
0 -> 104 [labeldistance=2.5, labelangle=-45, headlabel="False"] ;
105 [label="X[14] <= 1.5\ngini = 0.613\nsamples = 252\nvalue = [114, 37, 101]\nclass = y[0]", fillcolor="#fdf4ee"] ;
104 -> 105 ;
106 [label="X[27] <= 0.5\ngini = 0.608\nsamples = 165\nvalue = [62, 24, 79]\nclass = y[2]", fillcolor="#eadefb"] ;
105 -> 106 ;
107 [label="X[25] <= 1.5\ngini = 0.444\nsamples = 12\nvalue = [8, 4, 0]\nclass = y[0]", fillcolor="#f2c09c"] ;
106 -> 107 ;
108 [label="gini = 0.0\nsamples = 8\nvalue = [8, 0, 0]\nclass = y[0]", fillcolor="#e58139"] ;
107 -> 108 ;
109 [label="gini = 0.0\nsamples = 4\nvalue = [0, 4, 0]\nclass = y[1]", fillcolor="#39e581"] ;
107 -> 109 ;
110 [label="X[16] <= 1.5\ngini = 0.592\nsamples = 153\nvalue = [54, 20, 79]\nclass = y[2]", fillcolor="#dfcdf8"] ;
106 -> 110 ;
111 [label="X[11] <= 1.5\ngini = 0.613\nsamples = 67\nvalue = [31, 10, 26]\nclass = y[0]", fillcolor="#fcf0e7"] ;
110 -> 111 ;
112 [label="X[18] <= 2.25\ngini = 0.552\nsamples = 23\nvalue = [5, 4, 14]\nclass = y[2]", fillcolor="#c09cf2"] ;
111 -> 112 ;
113 [label="gini = 0.0\nsamples = 2\nvalue = [0, 2, 0]\nclass = y[1]", fillcolor="#39e581"] ;
112 -> 113 ;
114 [label="X[10] <= 3.5\ngini = 0.49\nsamples = 21\nvalue = [5, 2, 14]\nclass = y[2]", fillcolor="#b890f0"] ;
112 -> 114 ;
115 [label="X[28] <= 3.5\ngini = 0.421\nsamples = 19\nvalue = [3, 2, 14]\nclass = y[2]", fillcolor="#a877ed"] ;
114 -> 115 ;
116 [label="X[22] <= 0.5\ngini = 0.304\nsamples = 17\nvalue = [1, 2, 14]\nclass = y[2]", fillcolor="#9a61ea"] ;
115 -> 116 ;
117 [label="X[0] <= 50.99\ngini = 0.219\nsamples = 16\nvalue = [0, 2, 14]\nclass = y[2]", fillcolor="#9355e9"] ;
116 -> 117 ;
118 [label="X[28] <= 2.5\ngini = 0.48\nsamples = 5\nvalue = [0, 2, 3]\nclass = y[2]", fillcolor="#d5bdf6"] ;
117 -> 118 ;
119 [label="gini = 0.0\nsamples = 2\nvalue = [0, 2, 0]\nclass = y[1]", fillcolor="#39e581"] ;
118 -> 119 ;
120 [label="gini = 0.0\nsamples = 3\nvalue = [0, 0, 3]\nclass = y[2]", fillcolor="#8139e5"] ;
118 -> 120 ;
121 [label="gini = 0.0\nsamples = 11\nvalue = [0, 0, 11]\nclass = y[2]", fillcolor="#8139e5"] ;
117 -> 121 ;
122 [label="gini = 0.0\nsamples = 1\nvalue = [1, 0, 0]\nclass = y[0]", fillcolor="#e58139"] ;
116 -> 122 ;
123 [label="gini = 0.0\nsamples = 2\nvalue = [2, 0, 0]\nclass = y[0]", fillcolor="#e58139"] ;
115 -> 123 ;
124 [label="gini = 0.0\nsamples = 2\nvalue = [2, 0, 0]\nclass = y[0]", fillcolor="#e58139"] ;
114 -> 124 ;
125 [label="X[28] <= 1.5\ngini = 0.558\nsamples = 44\nvalue = [26, 6, 12]\nclass = y[0]", fillcolor="#f4c8a8"] ;
111 -> 125 ;
126 [label="X[9] <= 2.5\ngini = 0.231\nsamples = 15\nvalue = [13, 0, 2]\nclass = y[0]", fillcolor="#e99457"] ;
125 -> 126 ;
127 [label="gini = 0.0\nsamples = 12\nvalue = [12, 0, 0]\nclass = y[0]", fillcolor="#e58139"] ;
126 -> 127 ;
128 [label="X[2] <= 40.5\ngini = 0.444\nsamples = 3\nvalue = [1, 0, 2]\nclass = y[2]", fillcolor="#c09cf2"] ;
126 -> 128 ;
129 [label="gini = 0.0\nsamples = 2\nvalue = [0, 0, 2]\nclass = y[2]", fillcolor="#8139e5"] ;
128 -> 129 ;
130 [label="gini = 0.0\nsamples = 1\nvalue = [1, 0, 0]\nclass = y[0]", fillcolor="#e58139"] ;
128 -> 130 ;
131 [label="X[25] <= 0.5\ngini = 0.637\nsamples = 29\nvalue = [13, 6, 10]\nclass = y[0]", fillcolor="#fbebe0"] ;
125 -> 131 ;
132 [label="X[0] <= 61.737\ngini = 0.623\nsamples = 17\nvalue = [8, 6, 3]\nclass = y[0]", fillcolor="#fae8db"] ;
131 -> 132 ;
133 [label="X[9] <= 2.5\ngini = 0.643\nsamples = 14\nvalue = [5, 6, 3]\nclass = y[1]", fillcolor="#e9fcf1"] ;
132 -> 133 ;
134 [label="X[28] <= 4.5\ngini = 0.569\nsamples = 12\nvalue = [5, 6, 1]\nclass = y[1]", fillcolor="#e3fbed"] ;
133 -> 134 ;
135 [label="X[20] <= 12.0\ngini = 0.54\nsamples = 10\nvalue = [3, 6, 1]\nclass = y[1]", fillcolor="#aaf4c9"] ;
134 -> 135 ;
136 [label="X[1] <= 0.5\ngini = 0.375\nsamples = 8\nvalue = [2, 6, 0]\nclass = y[1]", fillcolor="#7beeab"] ;
135 -> 136 ;
137 [label="X[24] <= 0.5\ngini = 0.444\nsamples = 3\nvalue = [2, 1, 0]\nclass = y[0]", fillcolor="#f2c09c"] ;
136 -> 137 ;
138 [label="gini = 0.0\nsamples = 1\nvalue = [0, 1, 0]\nclass = y[1]", fillcolor="#39e581"] ;
137 -> 138 ;
139 [label="gini = 0.0\nsamples = 2\nvalue = [2, 0, 0]\nclass = y[0]", fillcolor="#e58139"] ;
137 -> 139 ;
140 [label="gini = 0.0\nsamples = 5\nvalue = [0, 5, 0]\nclass = y[1]", fillcolor="#39e581"] ;
136 -> 140 ;
141 [label="X[20] <= 18.5\ngini = 0.5\nsamples = 2\nvalue = [1, 0, 1]\nclass = y[0]", fillcolor="#ffffff"] ;
135 -> 141 ;
142 [label="gini = 0.0\nsamples = 1\nvalue = [1, 0, 0]\nclass = y[0]", fillcolor="#e58139"] ;
141 -> 142 ;
143 [label="gini = 0.0\nsamples = 1\nvalue = [0, 0, 1]\nclass = y[2]", fillcolor="#8139e5"] ;
141 -> 143 ;
144 [label="gini = 0.0\nsamples = 2\nvalue = [2, 0, 0]\nclass = y[0]", fillcolor="#e58139"] ;
134 -> 144 ;
145 [label="gini = 0.0\nsamples = 2\nvalue = [0, 0, 2]\nclass = y[2]", fillcolor="#8139e5"] ;
133 -> 145 ;
146 [label="gini = 0.0\nsamples = 3\nvalue = [3, 0, 0]\nclass = y[0]", fillcolor="#e58139"] ;
132 -> 146 ;
147 [label="X[11] <= 2.5\ngini = 0.486\nsamples = 12\nvalue = [5, 0, 7]\nclass = y[2]", fillcolor="#dbc6f8"] ;
131 -> 147 ;
148 [label="gini = 0.0\nsamples = 4\nvalue = [0, 0, 4]\nclass = y[2]", fillcolor="#8139e5"] ;
147 -> 148 ;
149 [label="X[0] <= 53.003\ngini = 0.469\nsamples = 8\nvalue = [5, 0, 3]\nclass = y[0]", fillcolor="#f5cdb0"] ;
147 -> 149 ;
150 [label="gini = 0.0\nsamples = 3\nvalue = [0, 0, 3]\nclass = y[2]", fillcolor="#8139e5"] ;
149 -> 150 ;
151 [label="gini = 0.0\nsamples = 5\nvalue = [5, 0, 0]\nclass = y[0]", fillcolor="#e58139"] ;
149 -> 151 ;
152 [label="X[0] <= 54.218\ngini = 0.535\nsamples = 86\nvalue = [23, 10, 53]\nclass = y[2]", fillcolor="#c3a1f3"] ;
110 -> 152 ;
153 [label="X[1] <= 2.5\ngini = 0.644\nsamples = 38\nvalue = [15, 8, 15]\nclass = y[0]", fillcolor="#ffffff"] ;
152 -> 153 ;
154 [label="X[23] <= 2.5\ngini = 0.614\nsamples = 29\nvalue = [8, 6, 15]\nclass = y[2]", fillcolor="#d5bdf6"] ;
153 -> 154 ;
155 [label="X[11] <= 2.5\ngini = 0.569\nsamples = 24\nvalue = [4, 6, 14]\nclass = y[2]", fillcolor="#c7a7f3"] ;
154 -> 155 ;
156 [label="X[10] <= 0.5\ngini = 0.632\nsamples = 19\nvalue = [4, 6, 9]\nclass = y[2]", fillcolor="#e2d1f9"] ;
155 -> 156 ;
157 [label="X[9] <= 2.5\ngini = 0.346\nsamples = 9\nvalue = [2, 0, 7]\nclass = y[2]", fillcolor="#a572ec"] ;
156 -> 157 ;
158 [label="gini = 0.0\nsamples = 7\nvalue = [0, 0, 7]\nclass = y[2]", fillcolor="#8139e5"] ;
157 -> 158 ;
159 [label="gini = 0.0\nsamples = 2\nvalue = [2, 0, 0]\nclass = y[0]", fillcolor="#e58139"] ;
157 -> 159 ;
160 [label="X[20] <= 3.5\ngini = 0.56\nsamples = 10\nvalue = [2, 6, 2]\nclass = y[1]", fillcolor="#9cf2c0"] ;
156 -> 160 ;
161 [label="gini = 0.0\nsamples = 2\nvalue = [0, 0, 2]\nclass = y[2]", fillcolor="#8139e5"] ;
160 -> 161 ;
162 [label="X[11] <= 1.5\ngini = 0.375\nsamples = 8\nvalue = [2, 6, 0]\nclass = y[1]", fillcolor="#7beeab"] ;
160 -> 162 ;
163 [label="gini = 0.0\nsamples = 5\nvalue = [0, 5, 0]\nclass = y[1]", fillcolor="#39e581"] ;
162 -> 163 ;
164 [label="X[0] <= 48.116\ngini = 0.444\nsamples = 3\nvalue = [2, 1, 0]\nclass = y[0]", fillcolor="#f2c09c"] ;
162 -> 164 ;
165 [label="gini = 0.0\nsamples = 1\nvalue = [0, 1, 0]\nclass = y[1]", fillcolor="#39e581"] ;
164 -> 165 ;
166 [label="gini = 0.0\nsamples = 2\nvalue = [2, 0, 0]\nclass = y[0]", fillcolor="#e58139"] ;
164 -> 166 ;
167 [label="gini = 0.0\nsamples = 5\nvalue = [0, 0, 5]\nclass = y[2]", fillcolor="#8139e5"] ;
155 -> 167 ;
168 [label="X[9] <= 1.5\ngini = 0.32\nsamples = 5\nvalue = [4, 0, 1]\nclass = y[0]", fillcolor="#eca06a"] ;
154 -> 168 ;
169 [label="gini = 0.0\nsamples = 1\nvalue = [0, 0, 1]\nclass = y[2]", fillcolor="#8139e5"] ;
168 -> 169 ;
170 [label="gini = 0.0\nsamples = 4\nvalue = [4, 0, 0]\nclass = y[0]", fillcolor="#e58139"] ;
168 -> 170 ;
171 [label="X[5] <= 2.0\ngini = 0.346\nsamples = 9\nvalue = [7, 2, 0]\nclass = y[0]", fillcolor="#eca572"] ;
153 -> 171 ;
172 [label="gini = 0.0\nsamples = 7\nvalue = [7, 0, 0]\nclass = y[0]", fillcolor="#e58139"] ;
171 -> 172 ;
173 [label="gini = 0.0\nsamples = 2\nvalue = [0, 2, 0]\nclass = y[1]", fillcolor="#39e581"] ;
171 -> 173 ;
174 [label="X[2] <= 35.5\ngini = 0.344\nsamples = 48\nvalue = [8, 2, 38]\nclass = y[2]", fillcolor="#a06aec"] ;
152 -> 174 ;
175 [label="X[27] <= 3.5\ngini = 0.213\nsamples = 34\nvalue = [3, 1, 30]\nclass = y[2]", fillcolor="#9153e8"] ;
174 -> 175 ;
176 [label="X[20] <= 16.0\ngini = 0.169\nsamples = 33\nvalue = [2, 1, 30]\nclass = y[2]", fillcolor="#8d4ce8"] ;
175 -> 176 ;
177 [label="X[19] <= 1.5\ngini = 0.119\nsamples = 32\nvalue = [1, 1, 30]\nclass = y[2]", fillcolor="#8946e7"] ;
176 -> 177 ;
178 [label="X[3] <= 1.0\ngini = 0.064\nsamples = 30\nvalue = [0, 1, 29]\nclass = y[2]", fillcolor="#8540e6"] ;
177 -> 178 ;
179 [label="gini = 0.0\nsamples = 27\nvalue = [0, 0, 27]\nclass = y[2]", fillcolor="#8139e5"] ;
178 -> 179 ;
180 [label="X[28] <= 4.0\ngini = 0.444\nsamples = 3\nvalue = [0, 1, 2]\nclass = y[2]", fillcolor="#c09cf2"] ;
178 -> 180 ;
181 [label="gini = 0.0\nsamples = 2\nvalue = [0, 0, 2]\nclass = y[2]", fillcolor="#8139e5"] ;
180 -> 181 ;
182 [label="gini = 0.0\nsamples = 1\nvalue = [0, 1, 0]\nclass = y[1]", fillcolor="#39e581"] ;
180 -> 182 ;
183 [label="X[29] <= 0.5\ngini = 0.5\nsamples = 2\nvalue = [1, 0, 1]\nclass = y[0]", fillcolor="#ffffff"] ;
177 -> 183 ;
184 [label="gini = 0.0\nsamples = 1\nvalue = [0, 0, 1]\nclass = y[2]", fillcolor="#8139e5"] ;
183 -> 184 ;
185 [label="gini = 0.0\nsamples = 1\nvalue = [1, 0, 0]\nclass = y[0]", fillcolor="#e58139"] ;
183 -> 185 ;
186 [label="gini = 0.0\nsamples = 1\nvalue = [1, 0, 0]\nclass = y[0]", fillcolor="#e58139"] ;
176 -> 186 ;
187 [label="gini = 0.0\nsamples = 1\nvalue = [1, 0, 0]\nclass = y[0]", fillcolor="#e58139"] ;
175 -> 187 ;
188 [label="X[14] <= 0.5\ngini = 0.541\nsamples = 14\nvalue = [5, 1, 8]\nclass = y[2]", fillcolor="#d5bdf6"] ;
174 -> 188 ;
189 [label="X[18] <= 32.5\ngini = 0.43\nsamples = 11\nvalue = [2, 1, 8]\nclass = y[2]", fillcolor="#ab7bee"] ;
188 -> 189 ;
190 [label="gini = 0.0\nsamples = 7\nvalue = [0, 0, 7]\nclass = y[2]", fillcolor="#8139e5"] ;
189 -> 190 ;
191 [label="X[11] <= 1.5\ngini = 0.625\nsamples = 4\nvalue = [2, 1, 1]\nclass = y[0]", fillcolor="#f6d5bd"] ;
189 -> 191 ;
192 [label="gini = 0.0\nsamples = 2\nvalue = [2, 0, 0]\nclass = y[0]", fillcolor="#e58139"] ;
191 -> 192 ;
193 [label="X[28] <= 2.0\ngini = 0.5\nsamples = 2\nvalue = [0, 1, 1]\nclass = y[1]", fillcolor="#ffffff"] ;
191 -> 193 ;
194 [label="gini = 0.0\nsamples = 1\nvalue = [0, 0, 1]\nclass = y[2]", fillcolor="#8139e5"] ;
193 -> 194 ;
195 [label="gini = 0.0\nsamples = 1\nvalue = [0, 1, 0]\nclass = y[1]", fillcolor="#39e581"] ;
193 -> 195 ;
196 [label="gini = 0.0\nsamples = 3\nvalue = [3, 0, 0]\nclass = y[0]", fillcolor="#e58139"] ;
188 -> 196 ;
197 [label="X[1] <= 2.5\ngini = 0.556\nsamples = 87\nvalue = [52, 13, 22]\nclass = y[0]", fillcolor="#f3c5a4"] ;
105 -> 197 ;
198 [label="X[2] <= 11.0\ngini = 0.463\nsamples = 57\nvalue = [40, 9, 8]\nclass = y[0]", fillcolor="#eeae7f"] ;
197 -> 198 ;
199 [label="X[3] <= 0.5\ngini = 0.074\nsamples = 26\nvalue = [25, 0, 1]\nclass = y[0]", fillcolor="#e68641"] ;
198 -> 199 ;
200 [label="gini = 0.0\nsamples = 25\nvalue = [25, 0, 0]\nclass = y[0]", fillcolor="#e58139"] ;
199 -> 200 ;
201 [label="gini = 0.0\nsamples = 1\nvalue = [0, 0, 1]\nclass = y[2]", fillcolor="#8139e5"] ;
199 -> 201 ;
202 [label="X[0] <= 54.853\ngini = 0.631\nsamples = 31\nvalue = [15, 9, 7]\nclass = y[0]", fillcolor="#f8ddc9"] ;
198 -> 202 ;
203 [label="X[20] <= 2.5\ngini = 0.662\nsamples = 21\nvalue = [6, 8, 7]\nclass = y[1]", fillcolor="#f1fdf6"] ;
202 -> 203 ;
204 [label="gini = 0.0\nsamples = 4\nvalue = [4, 0, 0]\nclass = y[0]", fillcolor="#e58139"] ;
203 -> 204 ;
205 [label="X[23] <= 2.5\ngini = 0.595\nsamples = 17\nvalue = [2, 8, 7]\nclass = y[1]", fillcolor="#ebfcf2"] ;
203 -> 205 ;
206 [label="X[28] <= 3.0\ngini = 0.5\nsamples = 12\nvalue = [2, 8, 2]\nclass = y[1]", fillcolor="#88efb3"] ;
205 -> 206 ;
207 [label="X[27] <= 3.0\ngini = 0.198\nsamples = 9\nvalue = [1, 8, 0]\nclass = y[1]", fillcolor="#52e891"] ;
206 -> 207 ;
208 [label="gini = 0.0\nsamples = 8\nvalue = [0, 8, 0]\nclass = y[1]", fillcolor="#39e581"] ;
207 -> 208 ;
209 [label="gini = 0.0\nsamples = 1\nvalue = [1, 0, 0]\nclass = y[0]", fillcolor="#e58139"] ;
207 -> 209 ;
210 [label="X[2] <= 16.0\ngini = 0.444\nsamples = 3\nvalue = [1, 0, 2]\nclass = y[2]", fillcolor="#c09cf2"] ;
206 -> 210 ;
211 [label="gini = 0.0\nsamples = 2\nvalue = [0, 0, 2]\nclass = y[2]", fillcolor="#8139e5"] ;
210 -> 211 ;
212 [label="gini = 0.0\nsamples = 1\nvalue = [1, 0, 0]\nclass = y[0]", fillcolor="#e58139"] ;
210 -> 212 ;
213 [label="gini = 0.0\nsamples = 5\nvalue = [0, 0, 5]\nclass = y[2]", fillcolor="#8139e5"] ;
205 -> 213 ;
214 [label="X[28] <= 1.5\ngini = 0.18\nsamples = 10\nvalue = [9, 1, 0]\nclass = y[0]", fillcolor="#e88f4f"] ;
202 -> 214 ;
215 [label="gini = 0.0\nsamples = 1\nvalue = [0, 1, 0]\nclass = y[1]", fillcolor="#39e581"] ;
214 -> 215 ;
216 [label="gini = 0.0\nsamples = 9\nvalue = [9, 0, 0]\nclass = y[0]", fillcolor="#e58139"] ;
214 -> 216 ;
217 [label="X[15] <= 6.5\ngini = 0.604\nsamples = 30\nvalue = [12, 4, 14]\nclass = y[2]", fillcolor="#f1e9fc"] ;
197 -> 217 ;
218 [label="X[22] <= 0.5\ngini = 0.278\nsamples = 12\nvalue = [2, 0, 10]\nclass = y[2]", fillcolor="#9a61ea"] ;
217 -> 218 ;
219 [label="X[13] <= 4.5\ngini = 0.165\nsamples = 11\nvalue = [1, 0, 10]\nclass = y[2]", fillcolor="#8e4de8"] ;
218 -> 219 ;
220 [label="gini = 0.0\nsamples = 10\nvalue = [0, 0, 10]\nclass = y[2]", fillcolor="#8139e5"] ;
219 -> 220 ;
221 [label="gini = 0.0\nsamples = 1\nvalue = [1, 0, 0]\nclass = y[0]", fillcolor="#e58139"] ;
219 -> 221 ;
222 [label="gini = 0.0\nsamples = 1\nvalue = [1, 0, 0]\nclass = y[0]", fillcolor="#e58139"] ;
218 -> 222 ;
223 [label="X[8] <= -0.5\ngini = 0.593\nsamples = 18\nvalue = [10, 4, 4]\nclass = y[0]", fillcolor="#f4c9aa"] ;
217 -> 223 ;
224 [label="X[26] <= 0.5\ngini = 0.5\nsamples = 4\nvalue = [0, 2, 2]\nclass = y[1]", fillcolor="#ffffff"] ;
223 -> 224 ;
225 [label="gini = 0.0\nsamples = 2\nvalue = [0, 0, 2]\nclass = y[2]", fillcolor="#8139e5"] ;
224 -> 225 ;
226 [label="gini = 0.0\nsamples = 2\nvalue = [0, 2, 0]\nclass = y[1]", fillcolor="#39e581"] ;
224 -> 226 ;
227 [label="X[11] <= 1.5\ngini = 0.449\nsamples = 14\nvalue = [10, 2, 2]\nclass = y[0]", fillcolor="#eeab7b"] ;
223 -> 227 ;
228 [label="X[25] <= 0.5\ngini = 0.625\nsamples = 4\nvalue = [1, 1, 2]\nclass = y[2]", fillcolor="#d5bdf6"] ;
227 -> 228 ;
229 [label="gini = 0.0\nsamples = 2\nvalue = [0, 0, 2]\nclass = y[2]", fillcolor="#8139e5"] ;
228 -> 229 ;
230 [label="X[31] <= 0.5\ngini = 0.5\nsamples = 2\nvalue = [1, 1, 0]\nclass = y[0]", fillcolor="#ffffff"] ;
228 -> 230 ;
231 [label="gini = 0.0\nsamples = 1\nvalue = [1, 0, 0]\nclass = y[0]", fillcolor="#e58139"] ;
230 -> 231 ;
232 [label="gini = 0.0\nsamples = 1\nvalue = [0, 1, 0]\nclass = y[1]", fillcolor="#39e581"] ;
230 -> 232 ;
233 [label="X[21] <= 1.0\ngini = 0.18\nsamples = 10\nvalue = [9, 1, 0]\nclass = y[0]", fillcolor="#e88f4f"] ;
227 -> 233 ;
234 [label="gini = 0.0\nsamples = 9\nvalue = [9, 0, 0]\nclass = y[0]", fillcolor="#e58139"] ;
233 -> 234 ;
235 [label="gini = 0.0\nsamples = 1\nvalue = [0, 1, 0]\nclass = y[1]", fillcolor="#39e581"] ;
233 -> 235 ;
236 [label="X[23] <= 0.5\ngini = 0.389\nsamples = 106\nvalue = [25, 2, 79]\nclass = y[2]", fillcolor="#ab7bee"] ;
104 -> 236 ;
237 [label="X[9] <= 2.5\ngini = 0.375\nsamples = 8\nvalue = [6, 0, 2]\nclass = y[0]", fillcolor="#eeab7b"] ;
236 -> 237 ;
238 [label="X[30] <= 0.5\ngini = 0.245\nsamples = 7\nvalue = [6, 0, 1]\nclass = y[0]", fillcolor="#e9965a"] ;
237 -> 238 ;
239 [label="X[1] <= 1.5\ngini = 0.444\nsamples = 3\nvalue = [2, 0, 1]\nclass = y[0]", fillcolor="#f2c09c"] ;
238 -> 239 ;
240 [label="gini = 0.0\nsamples = 1\nvalue = [0, 0, 1]\nclass = y[2]", fillcolor="#8139e5"] ;
239 -> 240 ;
241 [label="gini = 0.0\nsamples = 2\nvalue = [2, 0, 0]\nclass = y[0]", fillcolor="#e58139"] ;
239 -> 241 ;
242 [label="gini = 0.0\nsamples = 4\nvalue = [4, 0, 0]\nclass = y[0]", fillcolor="#e58139"] ;
238 -> 242 ;
243 [label="gini = 0.0\nsamples = 1\nvalue = [0, 0, 1]\nclass = y[2]", fillcolor="#8139e5"] ;
237 -> 243 ;
244 [label="X[21] <= 1.5\ngini = 0.345\nsamples = 98\nvalue = [19, 2, 77]\nclass = y[2]", fillcolor="#a26eec"] ;
236 -> 244 ;
245 [label="X[15] <= 6.5\ngini = 0.325\nsamples = 96\nvalue = [17, 2, 77]\nclass = y[2]", fillcolor="#9f69eb"] ;
244 -> 245 ;
246 [label="X[8] <= 3.5\ngini = 0.114\nsamples = 33\nvalue = [2, 0, 31]\nclass = y[2]", fillcolor="#8946e7"] ;
245 -> 246 ;
247 [label="X[20] <= 1.5\ngini = 0.061\nsamples = 32\nvalue = [1, 0, 31]\nclass = y[2]", fillcolor="#853fe6"] ;
246 -> 247 ;
248 [label="X[0] <= 70.032\ngini = 0.5\nsamples = 2\nvalue = [1, 0, 1]\nclass = y[0]", fillcolor="#ffffff"] ;
247 -> 248 ;
249 [label="gini = 0.0\nsamples = 1\nvalue = [1, 0, 0]\nclass = y[0]", fillcolor="#e58139"] ;
248 -> 249 ;
250 [label="gini = 0.0\nsamples = 1\nvalue = [0, 0, 1]\nclass = y[2]", fillcolor="#8139e5"] ;
248 -> 250 ;
251 [label="gini = 0.0\nsamples = 30\nvalue = [0, 0, 30]\nclass = y[2]", fillcolor="#8139e5"] ;
247 -> 251 ;
252 [label="gini = 0.0\nsamples = 1\nvalue = [1, 0, 0]\nclass = y[0]", fillcolor="#e58139"] ;
246 -> 252 ;
253 [label="X[18] <= 45.5\ngini = 0.409\nsamples = 63\nvalue = [15, 2, 46]\nclass = y[2]", fillcolor="#ae7fee"] ;
245 -> 253 ;
254 [label="X[2] <= 46.0\ngini = 0.48\nsamples = 46\nvalue = [14, 2, 30]\nclass = y[2]", fillcolor="#c09cf2"] ;
253 -> 254 ;
255 [label="X[25] <= 0.5\ngini = 0.421\nsamples = 42\nvalue = [11, 1, 30]\nclass = y[2]", fillcolor="#b286ef"] ;
254 -> 255 ;
256 [label="X[0] <= 66.058\ngini = 0.298\nsamples = 33\nvalue = [6, 0, 27]\nclass = y[2]", fillcolor="#9d65eb"] ;
255 -> 256 ;
257 [label="gini = 0.0\nsamples = 1\nvalue = [1, 0, 0]\nclass = y[0]", fillcolor="#e58139"] ;
256 -> 257 ;
258 [label="X[9] <= 0.5\ngini = 0.264\nsamples = 32\nvalue = [5, 0, 27]\nclass = y[2]", fillcolor="#985eea"] ;
256 -> 258 ;
259 [label="X[20] <= 0.5\ngini = 0.388\nsamples = 19\nvalue = [5, 0, 14]\nclass = y[2]", fillcolor="#ae80ee"] ;
258 -> 259 ;
260 [label="gini = 0.0\nsamples = 1\nvalue = [1, 0, 0]\nclass = y[0]", fillcolor="#e58139"] ;
259 -> 260 ;
261 [label="X[17] <= 0.0\ngini = 0.346\nsamples = 18\nvalue = [4, 0, 14]\nclass = y[2]", fillcolor="#a572ec"] ;
259 -> 261 ;
262 [label="X[28] <= 3.5\ngini = 0.291\nsamples = 17\nvalue = [3, 0, 14]\nclass = y[2]", fillcolor="#9c63eb"] ;
261 -> 262 ;
263 [label="X[27] <= 1.5\ngini = 0.42\nsamples = 10\nvalue = [3, 0, 7]\nclass = y[2]", fillcolor="#b78ef0"] ;
262 -> 263 ;
264 [label="X[31] <= 0.5\ngini = 0.5\nsamples = 6\nvalue = [3, 0, 3]\nclass = y[0]", fillcolor="#ffffff"] ;
263 -> 264 ;
265 [label="gini = 0.0\nsamples = 3\nvalue = [0, 0, 3]\nclass = y[2]", fillcolor="#8139e5"] ;
264 -> 265 ;
266 [label="gini = 0.0\nsamples = 3\nvalue = [3, 0, 0]\nclass = y[0]", fillcolor="#e58139"] ;
264 -> 266 ;
267 [label="gini = 0.0\nsamples = 4\nvalue = [0, 0, 4]\nclass = y[2]", fillcolor="#8139e5"] ;
263 -> 267 ;
268 [label="gini = 0.0\nsamples = 7\nvalue = [0, 0, 7]\nclass = y[2]", fillcolor="#8139e5"] ;
262 -> 268 ;
269 [label="gini = 0.0\nsamples = 1\nvalue = [1, 0, 0]\nclass = y[0]", fillcolor="#e58139"] ;
261 -> 269 ;
270 [label="gini = 0.0\nsamples = 13\nvalue = [0, 0, 13]\nclass = y[2]", fillcolor="#8139e5"] ;
258 -> 270 ;
271 [label="X[8] <= 0.5\ngini = 0.568\nsamples = 9\nvalue = [5, 1, 3]\nclass = y[0]", fillcolor="#f6d5bd"] ;
255 -> 271 ;
272 [label="X[11] <= 1.5\ngini = 0.56\nsamples = 5\nvalue = [1, 1, 3]\nclass = y[2]", fillcolor="#c09cf2"] ;
271 -> 272 ;
273 [label="X[0] <= 73.77\ngini = 0.5\nsamples = 2\nvalue = [1, 1, 0]\nclass = y[0]", fillcolor="#ffffff"] ;
272 -> 273 ;
274 [label="gini = 0.0\nsamples = 1\nvalue = [1, 0, 0]\nclass = y[0]", fillcolor="#e58139"] ;
273 -> 274 ;
275 [label="gini = 0.0\nsamples = 1\nvalue = [0, 1, 0]\nclass = y[1]", fillcolor="#39e581"] ;
273 -> 275 ;
276 [label="gini = 0.0\nsamples = 3\nvalue = [0, 0, 3]\nclass = y[2]", fillcolor="#8139e5"] ;
272 -> 276 ;
277 [label="gini = 0.0\nsamples = 4\nvalue = [4, 0, 0]\nclass = y[0]", fillcolor="#e58139"] ;
271 -> 277 ;
278 [label="X[18] <= 42.0\ngini = 0.375\nsamples = 4\nvalue = [3, 1, 0]\nclass = y[0]", fillcolor="#eeab7b"] ;
254 -> 278 ;
279 [label="gini = 0.0\nsamples = 3\nvalue = [3, 0, 0]\nclass = y[0]", fillcolor="#e58139"] ;
278 -> 279 ;
280 [label="gini = 0.0\nsamples = 1\nvalue = [0, 1, 0]\nclass = y[1]", fillcolor="#39e581"] ;
278 -> 280 ;
281 [label="X[21] <= 0.5\ngini = 0.111\nsamples = 17\nvalue = [1, 0, 16]\nclass = y[2]", fillcolor="#8945e7"] ;
253 -> 281 ;
282 [label="gini = 0.0\nsamples = 16\nvalue = [0, 0, 16]\nclass = y[2]", fillcolor="#8139e5"] ;
281 -> 282 ;
283 [label="gini = 0.0\nsamples = 1\nvalue = [1, 0, 0]\nclass = y[0]", fillcolor="#e58139"] ;
281 -> 283 ;
284 [label="gini = 0.0\nsamples = 2\nvalue = [2, 0, 0]\nclass = y[0]", fillcolor="#e58139"] ;
244 -> 284 ;
}